																																																	
-0.0987952	-0.818282	0.895133	-0.436259	-0.50728	0.909428	0.995776	-1.58793	0.585542	-1.42125	-0.38791	-0.815464	-0.00212544	-1.47927	1.6725	-1.38897	1.34072	-0.188132	0.202897	-0.450059	-1.49066	1.55854	-1.44296	1.33113	1.28246	0.527853	0.783895	-0.81815	1.31225	0.333041	1.67945	0.702085	-0.403649	-1.60924	0.625501	-0.701579	-0.813171	-0.414874	0.98809	1.07598	-1.16792	1.02301	1.81255	-1.14632	0.0465716	-0.167724	0.755127	1.53893	-0.698478	-0.732854
0.638585	0.831813	-1.2529	-1.17335	-1.42887	-1.29142	-1.2096	0.97093	-1.3507	-0.535369	1.33038	-1.25501	1.27718	-1.85954	-0.891041	-0.657757	1.51628	0.701455	1.08597	-1.54399	-0.75628	-1.34166	-0.957172	-1.35905	-1.45218	-0.276391	0.342275	0.489827	1.24885	-0.369521	-0.959448	-1.27034	-0.591546	-0.885101	-1.64852	-0.944959	0.683196	-1.16225	0.384426	0.993835	0.620508	0.993523	-0.321782	-1.51474	-1.21257	-0.212011	-1.4776	-0.0315419	-0.456542	1.65136
-0.25314	0.690815	0.211384	-1.1141	0.516657	-0.0287232	0.791361	0.750543	-1.4383	0.248966	-0.507798	1.15171	-2.26936	0.727462	1.4932	-1.05334	1.27517	-0.0695391	0.549568	0.335199	0.275204	-0.721713	-1.47305	0.414695	-1.61434	0.488997	0.75189	0.814379	0.110136	-1.65506	0.604079	1.43332	-1.73579	0.353372	-1.08107	0.267001	-0.187952	-1.4704	-0.478281	1.44018	-0.858605	1.46942	-0.221123	0.237226	-1.94441	-1.71909	-0.701332	-1.63278	0.878366	0.132813

-1.18668
1.25766
-1.22289
-1.077
0.950345
-0.212671
-0.949946
0.359435
-0.967087
-1.20817
-0.561378
-1.36521
-1.04205
0.211563
-0.278169
-0.401898
0.816693
0.0100669
-1.4215
-0.287795
1.18462
0.39586
0.685665
0.716461
-0.0233137
0.418543
-0.418312
-1.09834
-0.592848
0.46737
-0.51021
-0.679363
0.749236
-0.699574
1.06649
-0.30284
-0.135542
-0.339623
-0.66367
0.553182
-0.977428
-0.348103
-0.238078
-1.31402
1.33038
-1.49844
-1.31805
0.0559315
0.669131
-0.704544
-0.770682
