																													
0.283207	0.766921	-0.879826	0.150573	-1.08275	0.723887	-0.0682788	0.630715	-0.912692	0.871876	-0.596593	0.564481	1.05212	-0.245597	-0.0105388	1.35706	-0.619061	-0.744392	-0.674707	-0.757632	1.2841	-0.714202	-0.99971	-1.21757	0.165802	0.305612	0.0579836	-0.346308	0.329608	0.104504
-0.657133	-0.316132	-0.712311	-1.07483	1.20442	1.02137	-0.144358	1.65035	-0.694389	0.852453	-0.68373	0.132976	1.12549	-1.32173	0.923845	-0.925322	-0.879758	-0.226047	-1.78805	-1.33611	-1.24639	0.693018	1.01993	-1.12764	-0.975606	0.767308	-0.083398	-1.02463	-1.34437	-1.67048
-1.16192	-1.12764	-1.27124	0.644125	-0.102478	1.6065	-1.58883	0.564828	-1.40937	-1.18944	-0.54554	0.739523	0.243606	0.371545	0.827237	1.50671	-0.308299	-0.283486	-1.39274	-0.650783	1.32357	0.171821	-1.40825	1.04678	0.214471	-1.40808	-1.63733	1.17185	1.2445	1.32581
																			
1.21253	-0.241869	0.442063	0.708138	-1.21256	-0.381451	-0.955022	-1.256	-1.07596	-0.912239	1.15297	1.64897	-0.930579	0.312227	1.07817	0.838497	1.57398	-0.569538	-0.0310194	-0.922833
0.0219642	-0.790712	1.51596	-0.885443	1.5427	0.361647	0.609698	-1.2489	-1.14621	1.01913	-0.939018	0.964551	0.216428	1.13926	-1.03314	0.0756091	1.27283	-0.0458978	1.29912	0.806818
-1.40907	0.456517	0.273051	-0.375375	0.598585	-0.351019	0.980258	1.16004	1.02766	0.593326	0.326474	-1.6224	1.68063	1.38956	0.920186	-1.24662	1.45243	-0.597935	-1.14212	-0.891977
-0.50217	-1.00138	0.227089	0.434207	-0.263191	0.730824	-0.00663639	0.849646	0.718422	1.0209	-0.734457	-1.48598	-0.556681	-1.10887	0.584144	1.45469	-0.399072	-1.72841	1.19694	1.42289
-0.74463	-0.661403	-0.609442	-0.220096	-0.202479	1.12663	-0.0206508	-0.0625143	0.569794	-0.936048	-1.27967	-0.653028	-1.37423	0.328413	0.996323	-1.61602	-0.0519164	-0.652641	0.846584	-1.29663
0.450284	-0.387036	0.320105	0.634389	1.24277	1.61315	-0.642686	1.45556	-1.75534	-0.870567	-1.20043	0.784668	-0.0916823	-0.242431	0.11731	-0.825877	1.27242	1.26219	0.702063	0.13903
-1.00556	1.58521	-1.30877	1.70962	-0.0663857	0.936533	0.809727	0.383207	-1.55867	0.966257	-1.01606	1.72039	-1.03842	0.570544	1.41349	1.37025	0.580373	0.303881	1.71969	0.546887
-0.312274	0.999731	-0.731125	-1.08061	1.62527	-0.273897	0.425559	-0.923542	-1.21815	1.3144	-0.656691	-1.53665	-0.52089	-0.628127	-0.7946	-0.339052	0.230254	-0.436347	-1.34156	-0.339878
1.14777	0.139427	-0.682308	1.30353	0.641072	0.786617	0.185284	-1.07782	-1.002	-0.788973	-1.63988	-0.122204	-0.0032749	-0.0912341	-1.67683	0.0568255	1.18122	-0.426317	-1.65004	1.14856
1.47839	-0.407833	0.620551	1.60236	1.54062	1.69499	-0.539327	1.55253	-0.997727	1.78413	-0.0541367	1.06374	1.05612	1.12927	1.05825	0.910838	-0.373014	-0.163623	0.559262	0.751253
0.83401	1.11332	1.33554	-0.209604	1.27263	-0.730266	-1.29898	-1.0193	0.770545	-0.462871	1.55756	-0.014423	1.74639	0.421771	1.28264	-0.411936	-1.37973	-1.66452	0.453637	0.595144
1.61287	-1.1183	-1.05854	-0.427569	1.12222	1.71342	-0.293728	-0.373599	0.109719	0.515688	0.766818	-0.260359	-0.71151	0.501794	0.104088	1.25031	0.987139	0.711119	-0.399615	0.676273
-0.817035	-0.388681	1.04567	0.976868	-0.544474	-1.58283	0.415593	-1.12514	0.232619	0.74444	-0.510133	0.44454	1.63776	-1.10455	0.965556	-1.62752	-0.431294	0.862782	0.595032	-1.21334
1.07816	-0.242564	1.22669	1.42974	-0.55224	-1.41685	1.55269	0.236898	0.881229	-0.810568	1.6391	1.34474	0.440747	0.970918	0.876013	-0.979978	0.634953	-0.0195882	-1.63637	-0.74393
-0.918411	-0.438764	1.60196	0.321294	-1.23754	-1.67852	-1.35122	-1.35856	-0.87222	-1.05048	-0.00520731	-1.73909	1.38146	-1.6906	-1.56221	0.89224	1.18932	1.09567	-1.37237	1.72353
0.98139	1.59109	1.68019	0.692208	0.512593	0.360307	0.571916	0.112914	0.0907067	-0.0900093	-0.585791	1.20292	-1.75783	-0.365008	-0.00607739	-1.20767	1.54175	1.44909	0.254647	-1.17275
-1.29999	-1.62946	-0.485313	1.03995	-1.46227	0.740118	-0.512867	-0.173135	-0.0173031	-0.844922	0.448267	-0.93881	0.0490136	-0.723152	0.689696	0.724755	0.561363	1.25591	-1.0051	0.448776
-1.05362	-0.555928	0.609016	1.42712	-0.453003	0.710556	1.4636	1.75373	0.576578	0.849705	-1.15945	-0.286874	-1.07261	-0.555212	0.436734	0.784589	0.0386992	1.4188	-0.430566	1.66855
0.109391	-0.784928	0.867975	-1.12344	1.53497	1.10105	-0.191102	-1.55028	0.0686775	1.27568	1.53701	1.45348	-0.0961765	-1.46136	1.09719	1.5819	-1.72624	-1.45834	0.299515	0.883466
0.088852	0.0599593	0.906772	-0.962659	-1.30899	-0.818551	-1.59326	-0.148525	-1.49999	-1.59166	-1.59665	0.301589	0.28993	-0.712627	0.395587	-1.09143	-1.67565	-1.1727	1.7082	-1.28056
-0.739783	0.493238	1.68564	0.540419	-0.945986	-0.938939	-1.40923	-0.992101	-0.631693	1.4164	0.999356	-0.836314	0.620691	-1.37771	-0.984433	-0.954178	0.250242	-0.222152	-0.181526	-0.209253
0.519349	-0.335903	-1.43263	0.916944	1.54436	-1.05426	-0.811727	-0.880764	-0.214175	-0.518843	0.0459099	1.07471	-0.669687	0.175796	-0.515842	-1.38552	-0.937733	1.40858	0.0699815	1.5646
-1.50275	1.0632	-0.537053	1.05927	0.618659	1.07026	-0.404777	-0.296951	-1.08669	-1.309	1.02701	1.39508	-0.878971	-0.594096	0.608342	0.048246	1.69525	0.609008	1.49744	0.646893
-0.286848	-0.201076	0.944829	-1.12594	-0.0771254	1.11945	-1.08462	1.12396	1.32098	0.696168	-1.59805	-0.905688	0.686615	-0.101009	-1.53492	0.416062	0.510003	1.55408	-0.438634	1.26558
-1.32535	-1.46258	-0.865042	0.996935	1.26776	1.47626	-0.366653	-0.367752	1.69413	0.837849	0.241967	-1.50144	1.25259	0.860444	-0.462095	0.114193	1.04644	0.962714	-0.0982182	-1.53968
0.134303	-0.161929	0.995681	-1.0544	-1.4777	-0.364526	1.18125	0.659759	1.09654	-0.342064	0.273575	1.13411	-1.18518	-1.12414	1.14489	1.29794	1.52287	-0.969024	0.485094	1.16327
1.03013	0.38109	0.00951238	1.63808	-0.249252	0.852512	-0.58962	-1.51393	1.09121	-0.793674	0.204322	1.61561	-0.292912	0.910848	-0.323671	-0.29839	1.4366	1.7349	-1.2737	-0.794642
1.69542	-1.15499	0.50215	0.863501	-0.641893	-1.57616	-0.529157	-1.41576	-1.60323	-0.571013	-0.788843	-0.164374	-0.68791	0.964153	1.39646	-0.945419	1.0252	-1.79005	1.59345	-0.394564
0.46552	0.613192	0.905303	0.0958471	-0.0869268	-0.230177	1.3447	0.659003	1.52737	-0.559608	-0.48569	-1.28568	-0.447053	1.08217	0.984479	-0.286373	-1.53607	-0.255322	-0.751791	-0.112264
0.972808	-0.137057	0.314435	-1.51062	-1.4817	-0.620907	1.41036	1.27523	-0.419101	1.53857	0.363697	1.24605	1.57064	-1.4365	-0.515896	-1.57211	0.0639511	0.613656	-0.562458	1.48027
0.550772	0.353248	0.160664	-1.50418	-0.069014	0.0975483	-0.223588	-1.25545	1.34096	0.117274	-1.60044	-1.41672	-1.44887	-1.2014	1.42295	-0.548588	0.769091	0.656433	-0.201687	-0.613146

0.0112739
-0.351481
-0.0792764
-1.35883
0.513471
-0.00970471
0.790257
-0.582617
0.500371
-0.274603
-0.931062
0.368727
-0.449687
1.2802
0.690161
-1.04449
-0.677252
0.264123
0.287315
-0.439939
-0.926005
