																													
0.382552	-0.0493879	1.54546	-0.0856441	0.0288681	0.0190908	-0.0562097	-0.141494	0.0102209	0.301451	-0.13017	0.196442	-1.37573	1.44764	0.0459809	-0.0132031	0.0179344	-1.25979	0.267222	-0.039403	0.219016	2.38469	0.0112852	0.738238	-0.137115	1.40716	1.4731	0.0334031	0.52084	0.116442
-1.3004	-0.293161	-0.980784	-0.278171	0.269229	0.913893	0.250954	-0.374218	0.467154	1.13287	-0.480284	-0.296268	1.80607	0.857836	-1.0181	0.286834	-0.264091	-1.50051	1.22813	0.283395	-0.501887	-0.583719	-0.294764	-0.426316	1.35113	1.31312	-1.4933	-1.42352	0.349408	0.343724
2.88774	-0.148315	0.252227	-0.418129	0.0936486	0.00152151	-0.142683	0.0822953	0.715638	-1.69771	-1.16048	0.69187	0.474734	0.0388532	0.609657	-0.0267026	0.0184585	-0.704185	-2.51908	-0.0372415	-0.172267	0.141659	0.0202923	-1.63676	2.27608	-1.50522	1.61892	-1.54299	0.905779	0.0121726
																			
-0.114251	-0.0250966	-0.0223929	1.17795	-0.143292	0.204103	1.12716	0.0148965	0.180631	0.0247259	-0.107428	-0.120707	-0.404049	0.786737	0.241925	-0.206478	0.11317	1.0314	0.197801	-0.683627
0.128198	0.183534	0.184337	-0.57843	-0.229221	-0.0172219	0.186323	0.0738706	-0.284208	0.267595	0.222343	0.304157	-0.0128058	0.198018	-0.0860309	0.168611	0.0825568	0.369698	0.1746	-0.424714
0.156813	-0.100016	-0.0424105	-0.296739	0.124939	-0.375771	-0.226912	-0.206497	0.132231	-0.207378	0.301824	0.202449	-0.429852	-0.633381	-0.066765	0.0631743	-0.331228	-0.540849	-0.229039	0.352812
0.00700054	0.218848	-0.275202	-0.472778	0.0218738	0.11198	0.440918	-0.0270838	-0.246757	0.00379158	0.113699	0.0148803	-0.303828	0.216732	0.137535	0.0345504	0.173057	0.273623	0.195672	-0.354772
0.296899	-0.133106	-0.176755	0.426643	-0.0389027	0.096295	-0.22646	0.0641769	-0.00860154	0.110709	-0.446673	0.212783	0.0646887	-0.213152	-0.304152	0.206667	0.147693	-0.280379	0.20153	0.451941
-0.158778	0.250199	0.263825	0.255912	-0.193859	-0.405261	-0.0915399	0.253714	-0.118497	-0.272723	0.221324	0.16539	-1.03069	0.169732	-0.179407	0.123634	-0.239236	-0.115261	-0.468015	-0.00110544
0.312828	0.0406916	-0.171474	-0.00366862	0.156977	-0.216457	-0.213014	0.162332	0.174051	0.137378	-0.330941	0.239957	0.170538	-0.269206	0.0846658	-0.205165	0.191483	-0.144488	0.209543	0.448852
-0.176187	-0.04753	0.372099	-0.630705	-0.186635	-0.0900966	-0.146048	0.0420554	-0.00264155	0.248831	0.0317595	-0.00210553	0.137788	0.143079	0.169744	-0.021285	0.0109987	0.24938	-0.21735	-0.386008
-0.0340438	-0.0521932	-0.249274	0.124605	-0.0126234	0.153405	-0.541069	-0.282441	-0.141869	0.0729901	0.0727884	-0.296152	-0.0279937	-0.393543	0.0943018	-0.203187	0.333474	-0.467364	-0.0763632	0.315357
0.0776195	0.332167	-0.130999	0.989232	0.127999	-0.355566	0.731204	-0.310497	-0.254375	-0.021806	0.254035	0.0325836	0.115955	-0.375884	-0.325654	0.127644	-0.229348	-0.489093	-0.0271416	0.569933
-0.174967	0.047612	0.0444315	-0.299721	-0.13792	-0.191154	0.730536	0.198527	0.0404302	0.133327	-0.0677561	0.150922	-0.259487	0.493184	-0.0643167	-0.0118884	0.156794	0.294194	-0.119326	-0.367213
0.153774	0.131169	0.38382	0.378407	-0.0539902	-0.126083	0.268616	-0.0278158	-0.394616	0.154238	0.0145514	-0.0414326	-0.476565	0.269516	-0.161256	0.211101	-0.162757	0.145634	-0.277611	-0.576984
0.237124	-0.0475185	-0.351841	0.00669683	-0.111796	0.41867	-0.0986663	0.177701	0.353739	0.324817	-0.381598	-0.142238	1.94326	0.577053	0.295965	-0.442739	0.181755	0.731564	0.172838	-0.583829
-0.0179817	-0.250713	0.0373624	0.219752	0.0978117	-0.00314075	-0.145153	-0.0530949	-0.0387655	-0.119992	0.126904	0.0399239	0.336666	0.564972	-0.135449	0.137031	-0.134292	1.20688	-0.125201	-1.14567
0.113624	0.123419	-0.361835	0.189293	-0.209176	0.0304615	0.110605	-0.14542	0.107961	0.391487	-0.433884	-0.0122958	1.02082	-0.328696	0.0803843	-0.612604	0.400528	-0.0892447	0.352155	-0.00229863
-0.267263	-0.248754	-0.255891	0.210079	0.203677	-0.11979	-0.42857	-0.279084	-0.0982343	0.12098	-0.294721	0.386416	0.25903	-0.309138	-0.0152725	0.190084	0.237653	-0.266948	0.217124	0.417918
-0.0845665	0.128671	0.152294	-0.229487	-0.200164	0.200117	0.199631	0.243604	0.0896033	0.194443	-0.176073	0.0168147	-0.308234	0.238929	-0.35821	-0.0415168	-0.290137	0.0783152	0.0132714	-0.419427
-0.101868	0.0812529	0.141106	0.508074	0.329749	-0.409315	-0.536535	-0.234348	-0.309655	-0.457952	0.577852	0.273291	-1.19902	-0.628682	-0.591192	0.464022	-0.248625	-0.188365	-0.498293	1.39999
-0.134448	-0.176162	0.338128	0.619305	-0.273741	-0.0761585	0.907179	0.156599	-0.0824386	0.242128	0.052129	-0.0451998	0.35057	-0.603648	0.254895	-0.0865986	-0.0398139	-1.12148	-0.10278	0.918994
-0.0267878	-0.0531837	0.136522	-0.00717353	0.0308251	0.00354314	-0.46848	-0.137375	-0.00846332	0.0669675	0.0104614	-0.0216201	0.099157	-0.243779	0.244372	-0.192381	-0.0226295	-0.271747	0.0642607	0.376456
0.144775	-0.112632	-0.0845114	0.53781	0.123255	-0.0719009	0.568112	0.256425	0.11516	0.0572206	-0.208335	-0.263506	-0.274484	0.500626	0.335389	-0.202063	-0.061671	0.0406925	-0.0134556	-0.126453
-0.135173	0.117399	0.0299805	-0.12462	-0.0239877	0.294993	0.975537	0.1614	-0.12639	0.0325628	-0.251109	-0.11126	-0.373353	-0.061967	0.108012	-0.0148118	0.244435	-0.247105	0.27257	0.493185
0.157009	-0.0276165	-0.211011	-0.339624	0.0101496	0.232873	0.479755	0.100178	-0.270497	0.126597	0.0121357	0.289158	-0.261435	0.230887	0.0859035	0.275657	-0.277556	0.303889	0.125959	-0.562943
-0.0949965	0.0675886	-0.0538277	0.424232	-0.134746	-0.0117982	1.22056	-0.0395491	0.0348208	0.244886	0.0205425	0.0778507	0.67893	0.202807	0.139964	-0.170218	0.0142838	0.697227	-0.112629	0.393383
-0.29294	0.103192	0.0472589	0.52235	0.09812	-0.0397359	-1.02522	0.312286	0.0106427	0.075348	-0.0455267	-0.0561006	-0.441125	-1.57621	0.227999	0.0485673	-0.424029	-0.632305	-0.222101	0.296891
0.0589643	0.186752	-0.103868	0.982656	-0.0460853	0.342047	0.239415	0.0684694	0.189127	0.0109982	-0.0743582	0.0500721	1.60456	1.02964	0.180199	-0.0936033	0.170835	0.701243	0.136604	-0.425505
-0.035072	-0.12497	-0.0429444	0.078514	0.0992723	-0.24855	0.714685	0.0106	-0.0162789	0.00675718	0.0183781	0.107272	-0.652408	-1.21548	-0.216999	0.140664	0.0629848	-0.609123	-0.176992	0.4562
-0.217332	0.0534645	-0.306242	0.152501	0.107653	0.255346	-0.140531	0.148688	0.369112	-0.167195	-0.39832	-0.318774	1.47831	0.281404	0.332633	-0.32334	-0.00259675	0.407572	-0.0403454	0.630896
0.0824485	0.246382	-0.0860337	1.08705	0.0233227	-0.0772464	0.328365	-0.125061	-0.00640616	-0.0367267	0.260856	0.110448	-0.382888	-0.243876	-0.260775	-0.0468821	0.211992	-0.0852957	-0.122318	0.208546
-0.221629	0.149465	0.221453	0.629516	-0.162929	-0.036378	0.021989	0.18905	-0.210297	0.110839	-0.00255671	-0.13685	0.00623381	-0.102227	-0.186794	-0.0304766	-0.160588	-0.216496	-0.055188	0.484045
-0.138104	0.126369	-0.0352395	0.364895	-0.0923434	-0.213574	-0.0922304	0.139413	0.0233042	0.0763584	0.107038	0.258374	0.597035	-0.282444	0.141412	-0.0108897	-0.0338906	-0.36161	0.0268836	-0.0890247

-0.00174493
-0.0240159
-0.0274079
0.320962
-0.0223521
0.0649973
-0.389885
0.0129195
0.0352333
0.0411402
-0.0622567
-0.0360332
0.338188
0.402184
0.0615913
-0.0617517
0.0287518
0.413679
0.0511517
-0.371588
0.1049
