																																																	
-2.93463e-31	1.83024e-31	0.0192795	-3.45071e-27	3.66878e-32	-1.90221e-32	3.58952e-32	-0.0192795	-1.18337e-31	3.29214e-31	-1.32573e-33	-1.01065e-31	-0.0192795	0.0192795	-1.46121e-33	-1.85252e-32	1.66938e-31	-0.0192795	1.32082e-32	0.0192795	0.0192795	-2.12374e-31	3.6913e-32	-5.11667e-31	-5.81971e-32	1.36027e-32	1.94731e-32	5.53607e-31	1.04573	-2.46988e-32	6.13877e-32	0.0192795	-0.0192795	0.0192795	-0.0192795	-0.0192795	7.79128e-33	4.4821e-32	-0.0192795	0.0192795	-1.02438	0.0192795	0.0192795	-2.17354e-31	-0.0192795	6.10175e-31	-0.0192795	6.98982e-32	-8.29274e-32	-8.90943e-32
-1.40972e-30	8.79197e-31	0.258074	-1.65763e-26	1.76239e-31	-9.1377e-32	1.72431e-31	-0.258074	-5.68457e-31	1.58146e-30	-6.36846e-33	-4.85488e-31	-0.258074	0.258074	-7.01926e-33	-8.89901e-32	8.01925e-31	-0.258074	6.34488e-32	0.258074	0.258074	-1.02019e-30	1.77321e-31	-2.45791e-30	-2.79564e-31	6.5344e-32	9.35439e-32	2.65938e-30	1.23601	-1.18647e-31	2.9489e-31	0.258074	-0.258074	0.258074	-0.258074	-0.258074	3.74273e-32	2.15308e-31	-0.258074	0.258074	1.17702	0.258074	0.258074	-1.04411e-30	-0.258074	2.93112e-30	-0.258074	3.35772e-31	-3.98361e-31	-4.27986e-31
-1.91214e-31	1.19254e-31	-0.0311189	-2.2484e-27	2.3905e-32	-1.23943e-32	2.33885e-32	0.0311189	-7.71053e-32	2.14508e-31	-8.63815e-34	-6.58514e-32	0.0311189	-0.0311189	-9.5209e-34	-1.20706e-32	1.08773e-31	0.0311189	8.60617e-33	-0.0311189	-0.0311189	-1.38378e-31	2.40517e-32	-3.3339e-31	-3.79199e-32	8.86323e-33	1.26883e-32	3.60718e-31	-0.0291724	-1.60932e-32	3.99988e-32	-0.0311189	0.0311189	-0.0311189	0.0311189	0.0311189	5.07662e-33	2.92043e-32	0.0311189	-0.0311189	0.098455	-0.0311189	-0.0311189	-1.41623e-31	0.0311189	3.97576e-31	0.0311189	4.5544e-32	-5.40336e-32	-5.80518e-32

6.141e-31
-3.82994e-31
-0.132172
7.22094e-27
-7.67728e-32
3.98055e-32
-7.51141e-32
0.132172
2.4763e-31
-6.88911e-31
2.77422e-33
2.11487e-31
0.132172
-0.132172
3.05772e-33
3.87657e-32
-3.49333e-31
0.132172
-2.76395e-32
-0.132172
-0.132172
4.44412e-31
-7.7244e-32
1.07071e-30
1.21783e-31
-2.8465e-32
-4.07494e-32
-1.15848e-30
1.07356
5.16846e-32
-1.2846e-31
-0.132172
0.132172
-0.132172
0.132172
0.132172
-1.6304e-32
-9.37922e-32
0.132172
-0.132172
1.08956
-0.132172
-0.132172
4.54835e-31
0.132172
-1.27685e-30
0.132172
-1.46268e-31
1.73533e-31
1.86438e-31
-0.113162
