																													
0.00856708	0.108754	0.0328791	0.48209	0.0348004	0.17587	-0.719239	-0.0588494	0.308797	-0.10672	1.11626	-0.614247	-0.156729	0.178176	-0.43985	-0.114427	-0.926517	0.463577	-0.049352	-1.305	0.645725	-0.0519777	0.380458	0.0903831	0.0288776	-0.275217	0.595281	-0.531983	0.233339	1.26646
-0.425988	-0.490723	-0.521632	0.477434	0.323963	0.582261	-0.672428	-0.705186	0.501086	-0.685787	-0.214416	0.521497	0.423776	0.461199	0.0928975	-0.695645	0.726798	0.384224	0.375905	0.0289835	-0.556068	0.706084	0.647575	0.355849	-0.326716	0.541224	-0.895013	0.5826	-0.540897	1.2643
-0.217664	-0.197692	-0.703428	-0.81197	-0.1049	-0.167195	0.846216	-1.56408	0.330355	0.816854	-0.0650078	0.690688	-0.700792	0.412962	-1.09629	0.836163	-0.738914	-0.859814	-0.60384	-0.638539	-0.109956	0.392048	0.00476031	0.499854	0.391788	-0.595671	0.0583725	0.679321	0.35577	1.34132
																			
0.0134814	0.203776	0.207567	-0.113387	-0.0514195	-0.0710237	0.0836208	0.194845	0.142779	-0.194227	-0.0876546	0.0174738	-0.0444799	0.0080371	0.0973818	0.024481	0.245034	0.370129	-0.382447	0.0592711
0.00266061	0.0780361	-0.245696	-0.150181	-0.245136	-0.214078	0.336317	-0.0193373	-0.173969	-0.258906	-0.0333287	-0.26353	0.195698	0.31202	-0.0941918	0.203644	0.249196	0.138545	-0.395649	-0.350895
-0.45091	0.239833	0.00214702	0.182179	-0.0142281	-0.269759	0.269862	0.226528	-0.327462	-0.335182	0.259178	0.265919	0.0212435	0.0820082	0.017965	-0.11142	0.10166	0.26275	-0.761285	-0.124549
-0.250749	-0.283453	-0.259842	-0.0609423	-0.0721847	-0.0502581	0.153096	-0.367021	0.0471961	-0.39049	-0.245785	-0.360658	-0.452524	-0.229862	-0.150385	-0.0229819	0.32287	0.095734	-0.432303	0.100017
-0.0608915	-0.485994	0.14084	-0.104696	-0.0814791	0.451806	-0.0791535	-0.350778	0.295781	0.350319	0.178622	-0.0452031	0.224352	-0.301031	-0.277446	0.0636182	0.241523	-0.0195037	0.372089	-0.235157
-0.294112	-0.309382	-0.327073	0.253472	0.134244	-0.21696	-0.0986908	-0.0010088	0.243363	-0.397337	0.100426	0.00700889	-0.1464	-0.14046	0.238185	0.493509	-0.249058	-0.399334	0.397603	-0.196778
0.269377	-0.395959	-0.0467181	0.278865	-0.299621	0.273648	0.0696833	0.390269	0.350634	0.577827	-0.311265	-0.0267508	0.108209	0.0763837	-0.130888	-0.188012	-0.362613	-0.0535995	0.478459	0.0255553
-0.16382	-0.187174	0.357685	-0.427937	0.102665	-0.288519	-0.103839	0.526339	0.287274	-0.974869	-0.0289179	0.122424	0.185057	-0.174454	-0.416634	0.120872	-0.154368	-0.0330292	-1.11521	-0.238392
-0.372712	-0.239985	0.112842	0.117793	-0.0620256	0.464211	-0.163618	-0.477459	0.180907	-0.136059	0.0226947	-0.186114	-0.282961	0.169175	-0.173509	0.419134	0.256957	0.237069	0.0873835	-0.182132
-0.159881	0.57531	-0.126067	-0.346504	-0.141339	0.209927	0.30711	0.0452178	-0.00353118	0.166839	0.478958	-0.234918	0.20928	-0.126205	0.267589	-0.558068	0.0939602	0.365795	-0.167792	0.113378
0.00715367	-0.107285	0.137451	-0.185952	0.270373	0.0803796	0.511649	-0.156597	0.0864957	-0.0318158	0.458781	0.348563	0.24846	-0.0140052	-0.106548	0.139659	0.383885	-0.233124	-0.340327	-0.494624
0.212212	0.518043	-0.22034	-0.23339	0.00460348	0.228377	0.173154	-0.185187	-0.0500154	-0.0102277	0.472317	-0.0490109	0.254839	0.0282905	0.0120697	-0.366551	-0.424628	0.0397298	0.0559376	0.671641
0.505939	-0.426414	0.0076256	-0.217337	0.236537	0.345919	-0.472254	0.199434	0.231263	0.44417	-0.376137	-0.00374317	-0.216549	-0.264538	0.10378	0.250367	-0.0873701	-0.183223	0.315007	0.213772
0.122251	-0.28288	-0.332095	0.0823295	0.328222	0.144185	0.152131	-0.0365767	-0.276377	-0.0436268	-0.413438	-0.0736451	0.244595	0.0161453	-0.0688496	0.411979	-0.097764	-0.215729	0.607585	0.0709429
0.137289	-0.631194	-0.061565	0.200448	-0.0301503	-0.112728	-0.454576	-0.380685	0.217144	-0.0731283	-0.490687	0.260099	-0.228709	-0.247726	0.152394	0.250353	0.0909495	-0.223825	-0.407003	-0.115468
0.0415961	0.678112	0.21242	-0.349457	-0.149293	-0.117794	0.131328	0.39471	-0.146884	-0.0939802	0.244865	-0.0943827	0.23795	0.26286	-0.0958684	-0.367007	-0.369	0.314992	0.197367	0.375741
0.238623	0.221863	0.00612421	0.325443	0.0302962	-0.357073	-0.602993	0.319474	0.135575	-0.245805	-0.130973	-0.281657	-0.168285	-0.11194	-0.114882	0.130727	-0.389908	0.152542	-0.642339	0.213433
0.0995063	-0.255808	-0.0737624	0.153791	-0.114288	-0.185783	-0.0471781	-0.206798	-0.329497	-0.232177	-0.107034	-0.409106	-0.51246	-0.034672	0.0320533	0.244823	0.466522	-0.139808	-0.345186	-0.303131
0.427379	-0.627274	-0.255647	0.17404	-0.301549	0.14071	0.0466042	0.175766	0.384503	0.324821	0.0640895	-0.289169	0.287457	-0.0905725	0.219303	0.555931	0.244388	-0.262534	0.391754	0.115763
0.475977	-0.22001	0.3064	-0.214157	0.0615834	-0.502497	-0.0439736	-0.0798891	-0.0414454	0.903581	-0.399557	0.306632	-0.324782	-0.296015	0.35665	-0.514284	-0.522442	-0.412951	0.04694	-0.0855408
0.00385237	-0.403293	-0.259164	-0.131258	0.194468	0.0613019	0.192379	-0.146796	-0.318172	0.334849	-0.161815	0.398959	0.152563	-0.255607	-0.321721	0.0387685	0.299079	-0.082226	0.340057	-0.405997
0.44449	0.27891	-0.147598	0.472448	-0.0594211	0.444826	0.22274	-0.224006	-0.0580324	-0.0527334	-0.437464	-0.164235	0.133928	-0.297744	0.270145	-0.185334	-0.153468	-0.378776	0.235711	0.198485
0.0566607	0.0925681	-0.264546	-0.0599361	0.219916	0.263247	-0.0287669	-0.367777	-0.015325	-0.515816	-0.344352	-0.0769557	-0.338425	-0.108674	0.121355	0.432523	-0.139732	0.190572	0.0506614	-0.378125
0.250301	-0.0400115	-0.24794	0.361568	-0.171408	0.435905	-0.0945537	-0.326088	0.371582	0.490604	-0.100556	-0.121578	0.231869	-0.31451	0.308108	0.219684	0.311645	-0.0826015	0.398826	-0.013341
-0.370238	0.561681	0.294874	-0.234123	0.0305547	-0.337438	0.377429	0.413479	0.184006	-0.399171	-0.0399768	-0.178659	-0.0689328	0.213466	0.229362	-0.189118	-0.17751	-0.0607336	-0.443529	-0.169986
0.357642	-0.371178	0.00602963	-0.0400104	-0.0440793	0.0192553	-0.158545	0.310852	0.332671	0.462053	-0.312422	-0.0731959	-0.0364406	-0.231569	0.385147	-0.139929	0.166096	0.0667321	0.0412189	-0.172399
-0.432794	-0.0418811	0.0548101	0.277607	0.102578	0.210872	0.278402	-0.352765	-0.157629	-0.397056	-0.0156671	0.172694	-0.4397	0.250291	-0.00923129	0.126317	-0.119134	0.0867111	0.36728	-0.302029
-0.0827095	0.080416	-0.187824	0.399387	0.331284	0.593836	-0.134937	0.0576694	0.125766	0.362388	0.303925	-0.0184051	0.0104086	0.328833	0.440565	-0.267848	-0.188172	0.13415	0.229171	0.388385
-0.126559	0.331526	-0.149515	0.0772901	-0.353861	-0.212182	0.250893	-0.11353	0.010837	-0.419771	0.389508	0.208517	-0.183047	-0.0873151	-0.308692	0.324995	-0.0235353	0.156077	-0.10615	0.220094
-0.178424	0.661848	-0.0241362	-0.160468	0.291464	-0.472928	0.284832	-0.096341	-0.146026	0.317956	0.303948	-0.0570022	0.407547	-0.131847	0.374818	0.192342	0.104137	-0.084416	-0.562723	-0.479126
0.34809	0.0815133	-0.331755	0.0326782	0.303378	0.0939652	0.17091	-0.275418	0.147505	0.0754237	0.449611	0.294125	0.560343	0.151888	-0.134616	0.0190153	0.108139	0.352206	0.327473	0.479375

0.418974
0.783397
-0.0204047
-0.249852
0.0530694
-0.65791
-0.430756
-0.745168
-0.0395116
0.856711
0.383567
0.0625371
0.281842
0.116754
0.228647
0.750265
-0.299865
0.227043
-0.828592
-0.412745
-0.168505
