																													
-0.333914	0.00136928	0.50538	-0.0802768	0.0120375	-0.0664468	-0.585155	-0.0220232	-0.0141233	-0.396568	0.102719	0.654717	0.0896582	0.276977	-0.182691	-0.667184	-1.55023	-0.0655469	0.153604	0.061674	0.0578189	-0.117316	0.793251	-0.184133	-1.5622	-0.158378	0.110469	-0.0433831	0.704762	0.214084
0.168758	-0.368607	-0.210351	0.687548	-0.281559	0.665276	-0.279581	-0.488001	-0.284389	-0.00543478	-0.709289	-0.359885	-0.374329	0.535258	-0.374861	0.989876	-0.595098	0.678342	0.463654	-0.337155	0.325974	0.382206	1.19343	0.387618	0.558781	-0.471383	0.442133	0.481744	-1.04972	0.49656
0.311741	-0.0927555	-0.392857	1.16498	0.247219	-0.748875	-0.710422	0.50037	0.217852	-0.818301	-0.18038	-0.65685	0.449289	-0.539435	-0.275147	-0.331495	-0.00457498	0.530818	0.830851	0.402668	-0.285407	-0.0683318	-0.0174342	-0.364444	0.157592	0.178464	-0.817703	0.697013	0.0367326	-0.100168
																			
0.0321686	-0.00110705	-0.117483	0.0202796	-0.224284	-0.223698	0.262869	-0.301023	-0.118118	-0.00382567	-0.0801335	-0.30159	0.277347	0.276389	-0.125328	-0.0563859	-0.306509	0.166095	0.150852	0.0729899
0.033523	0.0686417	-0.414857	0.234386	-0.355917	0.089607	0.327163	-0.0567919	0.471538	-0.0293516	-0.18735	0.158556	-0.42185	-0.251257	0.0851558	-0.122263	-0.263805	0.0544991	-0.262228	0.0895437
-0.362505	-0.288128	-0.266161	0.305243	0.251641	-0.18553	0.0172613	-0.0694576	0.0390582	-0.103388	0.447746	-0.118388	0.0436017	0.183346	0.0600343	-0.123384	-0.00418024	0.118404	0.192549	-0.183467
-0.0074639	0.338729	0.280129	-0.179238	0.199194	0.0689901	0.119318	-0.219686	-0.690939	0.68394	-0.432483	-0.0104791	0.424577	-0.251117	0.0505814	0.522365	-0.0769346	-0.526476	0.0863108	-0.465214
-0.00807461	0.287398	-0.316176	0.329527	0.26785	0.312562	0.433576	-0.30415	0.357274	-0.0633455	-0.122803	-0.156921	0.211072	0.198414	-0.00814254	-0.328548	0.298423	0.243566	-0.0920109	0.209596
-0.369091	-0.603982	0.390046	0.206926	-0.286355	-0.246214	-0.262067	0.0731182	0.156366	-0.376908	-0.22338	0.124092	0.0882534	-0.0560283	-0.190072	0.304057	0.254861	-0.0382613	-0.327418	-0.3422
-0.298713	-0.628818	-0.0903306	-0.0245798	-0.00227796	-0.314491	-0.208545	-0.212355	-0.0273127	-0.302574	0.434761	-0.069798	-0.181434	-0.354613	0.0343405	-0.152662	0.140228	0.0222472	0.20164	-0.250057
0.345938	0.658307	-0.272317	-0.284059	-0.197993	0.106226	0.320886	0.289497	0.245718	0.0562446	0.130045	-0.179831	-0.395651	-0.0379655	-0.00787286	-0.147617	0.30537	-0.16906	0.291803	0.38849
-0.0209666	0.214339	-0.0105691	0.357531	-0.210284	0.339656	0.340666	0.295821	0.120442	0.0387474	0.103126	0.195966	-0.127174	0.0667526	-0.128675	-0.276674	-0.0791603	0.0382768	0.175758	0.350573
-0.336795	-0.526404	-0.283836	-0.0807001	0.246003	0.261038	-0.0977556	-0.195745	0.559958	-0.00839084	-0.222452	-0.264894	-0.178982	0.143992	0.200391	0.0917614	-0.114203	0.375434	-0.260134	-0.0881663
0.0585305	0.388314	0.0404429	0.302405	-0.00395997	-0.190797	-0.437151	-0.0561974	0.603523	0.251369	0.221229	0.12579	0.136547	-0.113334	0.110989	-0.1657	-0.147738	0.0980073	-0.227209	-0.141171
-0.229797	-0.504152	0.0744834	-0.250141	0.209894	-0.309102	-0.250009	-0.00799486	0.138247	0.117485	0.51797	0.267002	-0.191208	-0.0124468	0.247478	0.214446	-0.195743	0.385622	-0.329131	0.045435
0.0801926	0.354377	-0.167758	-0.0580068	-0.287071	-0.137179	0.0346361	-0.220836	-0.208693	-0.00395086	0.112612	-0.120431	-0.107286	0.133211	0.0120693	-0.543071	0.0139368	0.282765	0.330759	0.263009
0.133486	-0.398319	-0.193566	-0.176871	0.0259213	0.153374	-0.39966	-0.279912	0.347548	0.457755	0.026417	0.100754	-0.106037	-0.0147343	0.288098	-0.338912	0.0156533	0.488294	-0.154517	-0.337137
-0.401129	0.0231769	-0.380111	-0.280854	-0.240524	-0.371047	0.483106	-0.149111	0.301087	-0.382062	0.118944	-0.139034	-0.382683	0.232675	0.278512	0.131112	-0.224033	0.239722	-0.0393517	-0.147548
-0.636121	-0.121878	0.00126067	0.193111	0.0768213	0.184708	-0.277086	-0.0809979	0.17362	-0.0873768	0.454419	-0.0262279	0.143981	0.0625941	-0.230235	0.395923	-0.179087	-0.272692	-0.286543	-0.213788
-0.591666	-0.213866	0.210061	0.139495	-0.320155	-0.430226	0.613845	0.26505	-0.296683	-0.344786	0.15076	0.266268	0.414913	0.24319	0.320288	0.0562913	0.270511	-0.000554593	-0.131295	-0.658847
-0.0323854	-0.388269	0.132592	-0.267538	0.340163	0.0695515	0.475497	-0.0123037	-0.571338	0.426583	-0.0524958	-0.0421831	0.115248	0.0294613	-0.348143	-0.302467	-0.0464306	-0.359563	-0.13828	0.0746574
0.114695	0.176965	0.442133	-0.0722862	0.279957	0.153678	-0.395102	-0.318051	-0.62808	0.430782	-0.0964134	-0.11605	0.210262	0.0225974	-0.281675	-0.182639	-0.0570679	0.0183486	0.086597	-0.243406
-0.257304	0.321234	-0.0263921	-0.250894	0.0386382	0.160802	0.105953	0.0354236	0.250034	0.251862	-0.0440782	0.128893	0.262931	-0.0186674	-0.188208	-0.32817	-0.353825	0.159975	0.24935	-0.152273
-0.192392	-0.482677	0.177703	-0.344345	0.0434249	0.188899	-0.250195	0.22468	-0.158143	0.400204	0.285207	0.163822	0.300439	-0.202882	-0.152938	-0.112674	0.132795	-0.228923	-0.0056699	-0.378794
-0.290096	-0.0463092	-0.0107237	-0.100441	0.117893	0.247601	0.168578	-0.302075	-0.295928	-0.0846629	-0.365844	0.00725668	-0.181073	0.32106	-0.246559	0.29593	0.107366	-0.344171	0.265728	-0.402949
0.202111	0.356751	-0.341446	0.197536	0.465419	-0.20958	-0.524206	0.0583596	0.605357	0.12072	0.240591	-0.147945	0.319123	0.0803074	-0.210727	-0.835551	0.00870799	0.242236	-0.354403	0.306392
-0.00300517	-0.290473	0.0622142	0.0356117	-0.00107852	-0.202086	0.158541	-0.192287	0.131932	-0.0212595	0.339587	0.337143	0.370251	0.330498	0.186357	0.298983	0.00888265	-0.0777729	-0.0564989	-0.43799
0.652854	0.101712	-0.323009	0.422948	-0.331925	-0.229694	-0.173737	-0.313743	0.15257	-0.50354	0.110507	0.042308	-0.341729	0.356288	-0.26447	0.57521	-0.164778	-0.352043	-0.4589	0.739488
-0.0647087	0.368736	-0.0469898	-0.273349	-0.265395	-0.211697	0.403849	-0.157096	0.291865	-0.412828	0.085926	-0.151535	-0.212936	0.195851	0.147505	0.00407509	0.12502	-0.393484	-0.0222767	0.0344812
0.0348399	-0.431675	-0.055512	-0.324082	0.433637	0.344155	-0.264665	0.0844405	0.273611	0.181977	0.212194	-0.342323	-0.220192	0.309931	0.2964	0.206726	0.0512377	0.213474	-0.181921	-0.374926
0.0877571	-0.00611944	0.490497	-0.0273251	0.115061	0.260627	0.150898	-0.124	-0.539534	0.287293	-0.0896259	-0.33857	0.000578	-0.244032	-0.372737	0.406585	-0.174003	-0.534198	0.0775685	-0.164808
0.71289	-0.46526	-0.077764	-0.0360639	0.306397	0.0822027	-0.364044	0.347412	-0.56319	0.0544637	-0.414481	-0.251438	-0.015866	-0.144217	0.00793805	-0.121434	0.356144	0.528567	0.325285	-0.490112
0.0226331	-0.447047	0.0217795	-0.196263	-0.0346265	0.381105	-0.107113	-0.0186077	0.0564233	0.513077	-0.036109	0.00907848	-0.0563228	0.308598	0.320245	-0.434086	-0.274065	0.208758	-0.0856236	-0.307822
-0.232076	0.412417	0.368291	0.0323023	0.17916	-0.215563	0.0468042	-0.314446	-0.143991	0.130343	0.12094	0.133695	-0.232344	-0.397243	-0.403119	0.0180466	-0.368018	-0.12875	0.192224	-0.162018

-0.393255
0.827435
-0.49649
0.0610914
0.334964
0.0281727
-0.72718
-0.140726
0.912539
0.667334
0.191329
-0.0126688
-0.318947
-0.10046
-0.173796
0.48922
-0.0605397
-0.647018
-0.14208
0.710122
0.0651102
