																																																	
0.326304	-0.013692	-0.202915	0.358471	0.541718	-0.0533592	-0.439958	-0.229585	-0.049382	-0.105863	-0.286495	-0.323925	0.405303	-0.0492572	1.18173	-0.44722	0.00692712	0.321022	0.460462	-0.112734	0.176391	0.072155	0.0304941	-0.567546	-0.518142	0.29479	0.293238	0.0736579	-0.050644	-0.47303	0.398471	-0.273681	-0.0424919	-0.382234	0.203399	-0.431448	-0.0158024	-0.00889594	-0.474027	0.609882	-0.387605	-0.0170174	0.002887	-0.133508	-0.539804	0.0311912	-0.375988	0.296886	0.536912	-0.61233
0.226784	0.0529967	-0.420698	0.19974	0.668374	0.333665	0.167898	0.256135	-0.394348	0.0868104	-0.167385	-0.12702	0.681541	0.422077	-0.450882	0.226139	-0.426732	0.197492	-0.152564	-0.352356	0.0365952	-0.469568	0.406437	-0.670072	0.083168	0.189792	0.184058	0.375016	-0.436494	0.141045	-0.263702	-0.168503	-0.382958	0.19061	-0.300052	0.112696	0.432801	0.423436	0.333612	-0.735721	0.37168	-0.0492721	0.415993	-0.119542	0.669442	0.472604	0.197833	0.189831	-0.722244	-0.646187
-0.161315	0.102521	0.0731145	0.437926	0.0784001	0.0396538	-0.0411163	0.134405	-0.0282318	-0.108922	0.315521	0.168029	0.0989299	0.0570071	-0.0938685	-0.325995	0.0754834	-0.271406	-0.0978275	0.0958354	0.188151	0.353887	0.111821	0.110668	0.0215908	-0.149675	0.173294	0.107374	-0.371072	0.114268	-0.152112	0.037925	0.0385704	0.159342	-0.203633	0.137219	0.255297	0.0112757	-0.0282428	0.33917	0.045755	0.212691	0.103051	-0.389689	-0.0031429	-0.31326	0.0373971	-0.165461	-0.32251	0.0800815

-0.18975
0.0730144
-0.00724077
-0.396209
0.824439
-0.0837584
-0.287038
-0.195506
0.154591
0.115194
0.213406
0.10002
0.414289
-0.323758
-0.651145
-0.309621
0.360376
-0.497482
0.440991
0.211808
-0.128216
0.249074
-0.233244
-0.769763
-0.301187
-0.363765
-0.333004
-0.246134
0.317284
-0.460289
0.129074
0.284931
0.125106
-0.3011
0.134758
-0.158916
-0.288539
-0.381981
-0.050832
-0.788813
0.00643538
0.0285675
-0.15451
0.151418
0.766537
-0.337942
-0.24546
-0.333805
-1.01118
-0.879988
0.0812346
