																																																	
0.0509675	-0.624578	-0.691642	-0.702035	-0.0492616	0.685384	0.0394945	0.666678	0.672883	-0.0139533	-0.574941	1.25212	0.0117608	-0.585832	0.00487582	0.0251068	-0.671921	0.505395	-0.0505167	0.586947	-0.0473779	1.27088	0.0227622	0.663895	0.640684	-0.0384759	-0.752009	0.0190225	0.532735	-0.506575	0.459132	0.732337	-0.687673	-0.0235486	0.669101	-0.521999	-0.00739217	0.527608	0.0250723	-0.700692	0.530347	-0.781847	-0.661161	-0.687954	0.778656	-0.0241701	-0.713375	-0.0768456	0.816453	-0.0228319
-0.903222	-1.48195	1.2351	-0.170238	0.881264	0.1774	-0.84484	0.173065	-0.130059	-0.730331	0.176725	-0.522562	-0.779065	0.331643	0.742984	-0.960657	-1.1284	0.261072	0.890905	-0.399702	0.871381	0.532648	-0.76004	-1.52235	-0.243073	0.837079	1.38866	-0.797115	0.190683	-0.281739	-0.298038	-1.1481	0.137229	0.760175	-0.20053	-0.201152	1.2299	-0.266836	-0.96801	-1.29437	-0.210752	0.0908012	-0.502434	-0.277214	0.12142	0.884284	0.126266	0.70371	0.124451	0.773449
-0.00310762	-1.59446	-1.21687	0.00898844	-0.0176047	-0.0843829	0.112146	0.182975	-0.0248401	0.544417	0.357551	0.0214876	0.255714	-0.615424	-0.396113	-1.33312	-0.0566173	0.840566	-0.0209356	1.08916	-0.049423	0.00295473	-0.707649	-1.87489	0.422564	-0.0948789	0.584661	-0.256609	0.576993	-0.893256	-0.876298	0.375935	-0.0311789	0.564363	0.367131	-0.634999	-2.04827	-0.886349	-1.34998	1.31181	-0.639033	0.016836	1.27259	0.474089	0.250114	0.23487	-0.148817	-0.206137	-0.441837	0.477575

0.288001
-0.964785
0.986179
0.101381
-0.267489
-0.11618
0.253347
-0.105565
0.0982449
0.19191
-0.167863
-0.589049
0.213704
-0.218165
-0.189834
0.616872
-1.39301
-0.252523
-0.279225
0.408631
-0.265656
0.523216
0.350791
-0.900992
0.156503
-0.236851
1.03181
0.244161
-0.183382
0.274033
0.239431
-0.793736
-0.123123
-0.32837
0.153224
0.195311
-0.81574
0.288158
0.629983
-0.966129
0.220466
-0.0533672
0.5164
0.201297
-0.00844059
-0.307365
-0.136978
-0.117813
-0.215555
-0.304159
0.196927
