																													
-0.118468	0.21792	-0.828682	-0.110372	-0.116946	0.152202	0.555971	0.0283397	-0.361231	-0.0535659	0.0133085	0.43267	-0.379473	0.741275	0.287731	-0.0727001	-0.0362741	-0.0872399	-0.403654	-0.126555	-0.446219	-0.362673	-0.470384	-0.30819	0.113995	0.0960918	-0.68459	0.381244	0.176206	-0.508258
0.392701	0.474634	-0.0529008	0.351593	0.496149	-0.0760996	-0.827372	0.294512	-0.220184	-0.311081	0.232585	-0.186702	-0.159269	-0.124259	-0.218223	0.524059	0.483519	-0.373896	-0.628114	-0.426127	-0.735452	0.671516	0.056637	-0.0458467	0.281508	-0.260538	-0.0585465	0.199789	-0.366324	-0.765819
-0.0351932	-0.350729	0.0378745	-0.0324307	0.381487	0.451642	0.463153	-0.227197	0.381937	-0.313014	-0.197155	-0.155511	-0.597945	0.0242062	0.210697	0.505258	0.27974	0.529825	0.129078	0.180246	-0.0989852	0.458124	-0.39374	0.154469	0.207014	0.128193	-0.0530147	-0.142317	0.192122	0.338472
																			
0.205329	-0.285427	-0.0209645	0.213803	-0.115866	-0.337198	-0.279659	0.0806474	0.0355267	-0.0512441	0.0841111	0.0976601	0.201974	0.335907	-0.348042	-0.116041	0.355016	0.309394	0.288833	-0.014459
0.0725147	-0.31606	-0.104625	0.0154343	-0.155873	0.283299	0.140858	0.201402	0.00256085	0.402515	-0.242089	0.221557	-0.26255	0.198023	0.13601	-0.222348	-0.283758	0.129939	-0.0760441	-0.371238
-0.279125	0.218246	0.0720848	0.100522	0.187842	-0.0971851	-0.179017	-0.123352	0.535498	0.0605316	-0.0673852	-0.0922313	-0.118783	-0.152848	-0.15734	-0.122544	0.370643	-0.201231	0.24299	-0.144365
0.183072	-0.2688	-0.12837	-0.15996	0.197176	-0.0724345	-0.347032	-0.321394	0.0836021	0.120546	0.0967617	-0.24934	-0.172998	0.440647	-0.382238	0.0402273	0.0726851	-0.376273	0.304879	-0.316253
-0.226656	0.0148747	-0.221116	-0.288761	-0.150665	-0.435494	-0.383253	0.129813	0.056942	0.247609	-0.273171	0.230391	0.0130888	-0.200522	0.0660843	-0.283352	0.302004	-0.236522	0.601808	-0.330888
-0.162008	0.209523	0.180589	0.126585	-0.20575	0.177428	-0.253796	0.0216335	0.239889	-0.0618971	0.167947	-0.136837	-0.0630784	-0.0787611	0.141914	-0.121853	0.0692242	-0.19556	0.0691626	0.310479
0.610251	-0.281767	-0.169358	0.367754	-0.130639	0.00895786	-0.182555	0.199867	0.185915	0.559535	-0.213097	-0.518096	0.263781	0.269409	0.402862	-0.458082	0.0833902	0.174	-0.0375663	-0.210645
-0.0187552	0.0911487	0.0971164	-0.000870933	-0.17186	-0.389328	-0.258162	-0.303583	-0.261433	-0.0331024	0.35443	-0.269643	-0.254288	0.449241	-0.0410777	0.0495841	-0.323245	0.195015	0.237751	-0.226833
-0.210109	0.0493733	0.0410272	-0.108509	0.135583	-0.124324	0.270345	-0.00429822	-0.23076	-0.182244	0.265183	0.341667	-0.0923341	0.248968	-0.0902764	0.21167	0.0112425	-0.193249	0.372873	-0.0178848
-0.230379	0.175203	-0.222689	0.327546	0.0511199	0.35733	0.178468	-0.150958	0.215523	-0.100973	-0.0902163	-0.282295	-0.0267076	-0.226263	0.359355	-0.0909396	0.246227	-0.0890542	-0.421776	0.299455
0.22318	-0.096762	0.294304	-0.175103	0.0691456	-0.0329634	-0.0470438	0.151668	-0.0466726	0.0551088	0.338918	-0.0283411	-0.168762	0.149793	-0.204171	0.233494	0.0797542	-0.0408227	0.190456	-0.283233
-0.34531	0.294385	0.297802	0.055902	-0.0379592	0.150517	-0.151536	-0.323488	-0.127494	-0.223572	-0.235162	0.265731	0.262108	0.173036	-0.310526	0.0943198	-0.100534	-0.01348	-0.270536	-0.235679
-0.018944	-0.129866	0.174665	0.240827	-0.355816	0.157179	0.446986	0.295563	-0.0176086	0.189079	-0.149736	0.282499	0.0922028	-0.0404082	0.325743	0.319787	-0.0372892	-0.0513192	-0.224015	0.244242
-0.215793	0.190611	0.198608	0.315244	-0.290017	-0.326537	-0.0886011	-0.156398	-0.371131	-0.253945	0.342469	0.133223	0.115913	0.295927	0.37938	-0.300829	-0.00839556	0.0842804	-0.171392	-0.195981
-0.308809	-0.109803	0.347779	0.146511	0.0674015	0.00530532	0.0586145	0.212247	-0.0630036	-0.273408	-0.129175	0.104268	0.126193	-0.387636	0.342755	-0.14915	-0.187601	0.26911	-0.188713	-0.191624
0.231791	0.0043029	-0.219481	0.225008	-0.384846	-0.0481228	-0.483891	-0.218287	-0.178318	-0.276475	0.197996	-0.0650634	0.0912592	-0.262929	0.0581394	-0.427942	-0.28986	-0.170866	0.460804	-0.329627
0.190482	0.0742983	-0.0751936	-0.275828	-0.289625	-0.179433	-0.312321	-0.245385	0.157189	0.10751	0.0650871	-0.0154895	0.229041	0.377923	0.240438	-0.290967	-0.312722	-0.180722	-0.0251337	-0.176951
-0.236354	-0.242676	0.0637705	-0.16601	0.100104	-0.121387	0.24509	0.226476	0.360517	-0.401514	0.1685	0.221297	-0.0768322	0.0958574	0.338294	0.20546	0.0143194	0.271727	0.369308	0.057779
0.15472	0.285651	0.248957	-0.153954	0.187128	-0.0470748	-0.552664	-0.30018	0.179557	0.0690473	-0.0339926	-0.340347	0.335108	0.254511	-0.119061	-0.0924695	0.218662	-0.0317249	-0.199301	-0.139789
-0.363499	0.163343	0.13446	0.283172	0.11241	0.381465	-0.27083	-0.150065	0.049899	-0.455172	0.0997082	0.259846	0.190489	0.104755	0.108152	0.171983	0.233614	-0.0537079	0.0389692	0.169164
0.309584	-0.309963	-0.298277	0.0887741	0.357785	0.136099	-0.668871	-0.285656	0.0955382	0.273303	-0.257361	0.197943	-0.0952461	0.379563	-0.139191	-0.520964	0.143878	-0.0881262	-0.07169	0.42464
-0.348021	0.102165	-0.116689	-0.155778	0.140936	0.083003	0.179063	-0.117161	0.0746438	-0.220919	-0.141159	-0.243601	0.137439	0.194684	-0.369279	-0.273189	-0.207329	-0.282015	0.276764	0.392038
0.303809	0.119065	0.174908	-0.0459384	-0.152396	0.269236	0.270574	-0.0282895	0.141912	0.146379	0.219432	-0.145944	0.228703	0.33976	-0.105414	0.254438	0.382679	-0.295048	-0.16603	0.0201397
0.377264	-0.0459116	-0.135871	-0.304653	-0.30923	-0.0100798	0.416711	0.180854	0.0423331	0.215332	0.0419611	0.317682	0.102762	0.0248312	-0.198279	0.194476	0.250233	0.29371	0.195985	-0.00101977
-0.0640533	-0.151011	0.241523	-0.220465	0.0423756	0.0814142	-0.157369	-0.286432	-0.275733	0.428664	0.336634	0.17472	0.248688	-0.105637	-0.00913442	-0.341069	0.0802413	0.0424366	0.166763	-0.178912
-0.231521	0.100104	-0.148993	-0.0322747	0.366793	0.385251	0.170998	0.335446	-0.217797	0.143677	0.090191	0.0886246	0.323561	-0.334531	-0.126287	-0.0987577	0.180159	0.234013	-0.16048	-0.0363199
-0.209741	0.0347666	0.288948	0.140884	-0.248283	-0.195006	-0.111458	0.107867	0.354686	-0.0913642	-0.138808	-0.251846	0.187055	-0.28285	-0.196231	0.0372881	-0.0320682	-0.289427	0.198046	-0.0655574
-0.197165	-0.2826	0.281909	0.26269	-0.242728	0.27485	-0.406324	-0.235788	-0.161011	0.220835	-0.015322	-0.346543	0.165707	-0.204154	0.257617	0.0980466	0.28078	-0.229768	-0.113173	-0.0243625
0.0575285	-0.122762	-0.074419	-0.278445	-0.109406	-0.0998182	0.339052	-0.126663	-0.0725293	-0.372902	-0.340301	-0.0500191	-0.146932	0.0166562	0.141082	0.304868	-0.199295	0.376042	-0.38568	0.205383
0.123591	-0.200949	-0.0426016	0.0275407	0.400718	0.00840498	-0.556098	-0.185114	0.34734	0.145771	-0.137639	-0.281403	-0.0367451	-0.0269306	-0.196671	-0.466024	0.0308091	0.139833	0.067867	0.47232
0.235791	0.280038	-0.381858	-0.326465	-0.183319	-0.295597	0.101567	-0.242366	-0.0567415	-0.216404	0.242572	-0.262401	-0.175107	0.321691	-0.0775808	0.077928	-0.390941	0.096828	0.378619	0.0876945

-0.675759
0.166382
0.349018
-0.0881452
0.267728
0.319954
1.02298
0.195148
-0.648708
-0.745992
0.0606345
0.530277
-0.0100032
-0.387102
-0.680109
0.643741
-0.876296
-0.385415
0.932399
0.515908
0.128552
