																																																	
0.0166571	-0.744947	-0.0124501	0.640663	0.0252498	0.0299386	-0.53206	0.62419	-0.00293597	-0.448112	0.41114	0.021503	-0.436578	0.413628	-0.630469	-1.19122	0.398272	0.217984	0.611557	-0.0001296	0.637307	-0.445197	-0.0196217	0.432694	0.644624	-0.403557	0.725284	-0.42846	0.280182	-0.431617	-0.40006	-0.388327	-0.0185012	-0.00105063	0.558102	0.0232788	-0.133833	0.0312764	-0.625584	0.0339343	-0.427093	0.0601576	0.392767	0.416375	-0.417785	-0.522137	-0.618459	-0.0233052	1.20302	0.0180722
-0.578705	1.2471	0.572331	-1.16992	0.610083	0.82754	0.285838	-0.974291	0.572622	-0.194157	-0.176747	0.599026	-0.190852	0.171245	-1.45363	-0.530878	-0.179363	0.235762	-1.45079	-0.572888	-0.363813	-0.174634	1.03081	-0.212004	1.08306	0.17527	1.3247	-0.169712	-0.196914	-0.170927	0.175089	0.1724	1.07612	0.557815	0.340274	-0.594724	-0.0921402	0.639717	-0.971359	-0.661293	0.180771	0.407287	-0.174277	0.17379	0.178033	-0.269457	0.995734	-0.603426	-0.532221	-1.03762
-0.0284615	-1.34232	-0.0264131	-0.528391	-0.422706	-1.06174	-0.491394	0.1378	-0.120521	0.103297	-0.252164	-0.371436	0.0704182	0.187422	-1.59263	-0.000844365	-0.465721	-0.225008	-1.74586	0.147874	0.974176	-0.55818	0.477139	0.120514	0.0490424	0.278603	-1.47588	-0.449943	0.0374523	-0.467279	0.323545	0.351244	1.63343	-0.0553609	-0.758238	-0.0923475	0.148122	-0.536443	-0.00533413	-0.258066	0.112682	0.159406	-0.374571	0.142098	0.176087	0.508592	-0.0129987	0.386582	-0.0019775	-0.49658

0.268734
0.864014
-0.262878
-0.713449
-0.311025
-0.603968
-0.219667
-0.619406
-0.277511
0.206266
0.201916
-0.297399
0.196941
-0.212104
-0.939924
-0.581384
0.23156
-0.0431117
-0.826849
0.277048
0.426638
0.281883
-0.569016
0.137257
1.026
-0.196284
0.862819
0.254283
0.0548088
0.262003
-0.203876
-0.19549
-1.01744
-0.228222
-0.374272
0.286128
0.00138419
-0.358147
-0.78783
0.33547
-0.180574
-0.0764227
0.203958
-0.210682
-0.187712
0.267354
0.679169
0.313172
-0.534575
0.577987
0.113125
