																																																	
0.141615	0.520371	-0.199396	0.314925	-0.0332871	-0.0157805	-0.330836	0.357163	-0.445922	0.327856	-0.530839	-0.00548605	-0.358312	0.200893	-0.424243	0.00302296	-0.280518	0.322999	-0.00883511	-0.215358	-0.385843	-0.346985	-0.392102	0.642796	-0.256403	0.570325	0.141613	0.395835	0.12673	-0.385047	0.0157142	-0.259919	0.00588038	0.556934	-0.0569749	0.39411	-0.167664	-0.0994579	-0.400626	0.526312	0.416632	1.14137	1.15287	0.347353	-0.0949173	0.416854	-0.363156	-0.00292852	0.00405136	0.387151
-0.159552	-0.679767	-0.0683945	-0.211891	-0.295573	0.426645	-0.183223	-0.189869	0.209463	0.18177	0.65788	0.412419	0.146858	-0.124973	0.24019	-0.416662	0.189715	0.193975	0.417636	0.119758	-0.195207	-0.167826	-0.174434	-0.731617	0.131572	0.681585	0.0216551	0.1753	-0.163607	-0.168235	0.454944	0.123371	-0.415474	0.674472	0.197265	-0.17134	-0.0843554	0.0418404	-0.189283	0.668434	-0.191216	0.45948	-0.472058	-0.174274	0.0339845	-0.188382	0.182633	0.415637	-0.417387	0.194268
-0.200461	-0.224256	0.250871	0.203358	-0.165497	0.158815	0.117264	-0.332295	-0.221552	-0.309149	0.101867	0.000348139	-0.0179715	-0.253753	-0.0839722	0.0418564	-0.215147	0.319775	0.0921567	-0.170537	-0.135381	0.0164631	-0.0449015	0.350873	0.178838	-0.0885085	-0.215601	0.043347	-0.024682	-0.201278	-0.259039	-0.00581875	-0.0795332	-0.1898	-0.382015	-0.185378	-0.140722	-0.184449	0.114955	0.109901	0.109974	0.0402986	-0.0767138	-0.225858	0.22212	0.0864956	0.282346	-0.0356689	0.0270297	-0.181306

0.0419096
-0.989809
0.0634078
0.244224
0.148791
-0.365576
0.292012
0.361296
-0.432569
-0.277834
0.964842
-0.37442
-0.144892
0.074065
-0.126981
0.374976
-0.191848
-0.293387
-0.380404
-0.0424241
0.207371
0.291679
0.421563
-0.794919
-0.102457
0.903157
-0.0255546
-0.435062
0.0125416
0.33788
-0.325851
-0.0760694
0.39852
0.527435
0.145233
0.36929
0.112145
-0.057726
0.45496
1.27098
0.392046
0.537226
-0.564098
0.311763
0.0792103
0.357572
-0.380604
-0.399477
0.403868
-0.325642
0.110173
