																													
-0.22446	0.460674	-0.869628	-0.710244	0.0440092	-0.278023	-0.00014853	0.0858893	0.0904781	0.08564	0.000683306	-0.0140782	0.520459	0.0530684	0.62377	-0.330394	-0.149715	-0.279623	-0.418559	-0.196521	-0.344877	-0.171936	-0.49228	-0.000500802	0.00619405	0.780835	0.0164318	-0.107149	0.219729	-0.213479
0.00883876	0.502194	0.37319	-0.444668	-0.293111	0.0600807	-0.246867	-0.310807	0.319673	0.37714	0.246334	-0.443825	-0.785805	0.296351	-0.84944	0.104578	0.701576	-0.261337	-0.546232	-0.378599	0.0317257	0.0654082	0.869338	0.411883	-0.358716	0.239267	-0.349889	0.304349	-0.0448754	0.0507006
-0.29347	0.210415	0.045401	0.285926	-0.075401	-0.386429	-0.076482	-0.285775	-0.114841	-0.466085	-0.342477	-0.615908	0.263248	0.425682	0.530579	0.416981	0.276495	0.159734	0.156623	0.286316	0.359804	-0.258954	0.629679	0.598035	0.53175	0.302695	0.213489	-0.278389	0.178676	-0.272439
																			
-0.0172888	-0.041967	-0.330803	0.00423169	-0.0275596	0.45855	-0.184637	0.229802	-0.139572	0.122662	0.0484849	0.148671	-0.194191	0.144454	0.337333	-0.254258	0.255999	-0.249176	-0.132564	-0.342966
0.165224	0.303874	-0.325226	0.200236	-0.281812	-0.00267979	-0.110045	-0.049576	-0.353267	0.329049	0.314323	0.173153	-0.63918	0.290065	0.0775823	-0.249998	-0.00681898	0.191334	-0.293126	0.322654
-0.0827251	-0.0287949	0.271595	-0.078913	0.193709	0.456688	0.167404	0.12047	-0.306548	0.0462356	0.482284	0.218691	-0.236318	-0.0175631	-0.337833	0.284944	-0.151219	-0.255054	-0.228936	0.00268281
-0.37282	0.0678539	-0.0572167	-0.0969007	0.0240627	0.210944	-0.0797777	-0.106469	0.26599	-0.377824	-0.348179	-0.114052	0.235767	0.1449	-0.22097	0.174373	0.268891	0.100935	0.110652	-0.204775
-0.261509	0.245458	-0.202988	0.0747725	0.2309	0.361156	-0.0929897	0.104168	-0.139267	0.140444	0.338079	0.0962566	-0.306731	0.0301205	-0.329484	-0.287185	-0.281676	0.224608	-0.299893	0.381489
-0.00381953	0.257146	-0.144948	0.22417	-0.214909	0.179994	-0.178194	0.220191	0.188349	-0.139228	-0.332486	0.133011	-0.345574	-0.107238	0.315112	-0.0157455	0.189106	-0.108595	0.330325	-0.194808
0.039825	0.118396	0.262748	0.38843	0.194324	0.0897434	0.252389	-0.00638565	-0.0486917	0.130456	0.472189	0.0675278	-0.395838	-0.0118399	0.0769192	-0.0101212	0.0632531	-0.0749651	-0.0820513	0.152196
0.0511123	-0.252802	-0.394083	0.0700499	0.318638	0.0836352	-0.0998166	0.0415579	0.152919	0.0932849	0.391373	0.104291	-0.234967	0.230032	-0.11702	-0.0733441	0.342412	0.154318	-0.446905	0.273199
0.121187	-0.0574325	0.206973	0.236356	-0.125686	-0.148824	0.0549809	-0.291237	-0.283559	0.091552	-0.278855	0.21581	-0.0202972	0.161843	0.142083	-0.324416	0.106149	-0.0143631	0.162481	-0.353819
-0.282846	-0.189931	-0.372909	0.172624	0.288955	0.19483	-0.188111	-0.103732	0.0310777	0.398455	-0.340484	-0.253288	0.326822	0.249693	0.259218	-0.00604645	0.129919	-0.0332912	0.119516	-0.281614
0.296829	0.173419	0.170604	-0.332476	0.216987	-0.301023	-0.183269	0.277514	0.26524	-0.0528134	-0.208236	-0.114591	0.35426	0.119355	0.119215	0.115456	0.172673	-0.166937	-0.064763	-0.280031
0.0886998	-0.137065	0.0270455	0.199062	-0.317049	0.2221	0.531535	-0.242108	-0.0401459	0.0350546	0.296945	-0.147148	-0.362661	0.122607	0.219839	-0.281663	-0.274073	-0.0637857	-0.398834	0.446827
0.219987	-0.10066	-0.244447	0.291476	0.0678226	-0.133087	-0.368425	0.295084	-0.223158	0.228369	-0.425076	0.232959	-0.336439	-0.20412	-0.0490505	0.0943296	0.296734	-0.351314	0.176159	-0.450434
-0.226934	-0.347256	0.0063402	0.130306	-0.0287865	-0.213492	-0.520065	0.139099	0.0918625	0.119253	-0.265004	-0.0735494	0.480324	0.0767138	0.0848543	0.018798	-0.264046	-0.164493	0.292214	0.0624871
-0.133559	-0.249119	0.0334187	-0.0176694	0.228743	0.167767	-0.382089	-0.273827	-0.0418979	-0.25636	-0.680452	0.0351976	-0.0700891	0.244384	-0.128295	-0.32513	-0.121451	-0.354731	0.262047	-0.620036
-0.102293	0.258214	0.352307	-0.0780113	-0.312149	0.0109645	0.159859	-0.242518	-0.149714	-0.216814	-0.203427	0.0812204	-0.0921436	0.139493	-0.216396	-0.168434	-0.0591307	-0.253105	0.150638	-0.413997
0.389514	0.101124	0.168549	-0.0332771	0.179876	0.0572303	-0.251669	0.329922	-0.28818	0.0244678	0.128401	0.119798	0.51174	-0.0230011	-0.178928	-0.0953948	0.206783	-0.169021	0.127297	0.194747
0.273339	-0.215132	0.153862	-0.147822	0.17662	-0.0156704	0.216498	-0.180835	0.29581	-0.159192	0.245102	-0.150292	-0.0532944	0.114396	0.196872	-0.304436	0.17283	0.343743	0.118621	0.310063
0.414791	-0.200957	-0.269647	0.236543	0.357698	-0.539902	0.463327	-0.0253004	-0.0103683	-0.516306	-0.371305	0.076521	0.625394	-0.122316	-0.289017	-0.20616	0.0915146	-0.246717	-0.025452	-0.214838
0.0159345	0.257443	-0.12723	-0.270962	0.14784	-0.318748	0.422861	-0.0512173	-0.30923	0.0228258	0.442993	-0.0124881	0.235509	0.0371849	-0.100343	0.0269457	-0.192577	0.308831	-0.151125	0.350812
0.125475	0.319969	0.247604	-0.258345	0.305335	0.1533	0.00110756	-0.00449827	-0.0651067	-0.154234	0.0177267	-0.251299	-0.262397	-0.157653	-0.197482	-0.317508	-0.264412	0.0871934	-0.151485	-0.192582
0.120056	0.0838071	-0.150273	-0.134182	-0.00441302	0.314194	-0.162817	-0.0685294	0.134282	0.257342	0.164048	0.0678477	0.242393	-0.0142823	-0.0567778	-0.155959	-0.324158	0.339866	0.109596	-0.265965
-0.0321632	0.0762121	0.39761	-0.297512	-0.00542783	0.29864	-0.134343	-0.291776	0.338604	0.136309	0.361887	-0.299215	-0.0412589	-0.0200801	-0.121165	0.152009	-0.0941274	-0.0125127	-0.289568	0.541638
0.329962	-0.162827	0.305474	-0.480761	0.0261059	-0.383293	-0.473909	0.0569559	-0.0607996	-0.109789	-0.398349	0.125009	0.151178	0.164822	0.0103805	-0.0316141	-0.139028	0.0317974	-0.0301794	-0.213327
-0.292492	0.142446	-0.236221	-0.0351754	-0.355278	0.321162	0.0545298	0.031601	-0.322951	-0.32234	0.457401	-0.170893	-0.343976	-0.0161622	0.14974	-0.255128	0.0981272	0.00384751	-0.168221	0.217144
0.137151	-0.345478	0.222884	0.270789	-0.205446	-0.161338	-0.267423	-0.197038	-0.252389	0.179488	0.175876	0.00389942	-0.352617	-0.141249	-0.0778156	0.253632	-0.322333	-0.218741	-0.253096	0.00801738
0.143653	0.26569	0.336634	0.0121177	0.182591	0.0558701	-0.281471	-0.0299995	-0.329532	-0.20756	0.181575	0.0531126	-0.331656	0.0282496	-0.249425	0.276578	0.111239	-0.155328	-0.430273	0.244572
-0.231763	-0.318619	0.210759	-0.328401	-0.109359	0.133326	0.354402	-0.242013	-0.286871	0.218318	-0.468689	-0.0915102	0.0899749	-0.342133	0.154468	0.108586	0.196092	0.213644	0.0846589	0.0103929
0.320675	-0.0169823	0.29529	-0.389941	0.193978	-0.175732	0.0656305	0.0885714	0.17226	-0.344058	-0.0907109	-0.284701	0.303399	-0.100362	0.217075	-0.314621	0.250333	0.301368	0.145131	0.320657
-0.164881	-0.259719	-0.10923	0.0189503	-0.23471	0.122077	-0.09292	0.0565451	-0.0437958	0.161476	0.0479109	-0.283276	-0.342907	-0.270772	0.204486	0.170742	0.31049	0.0379797	0.00242562	-0.514845
0.261115	0.126528	0.1446	-0.0572026	0.0295145	0.224295	-0.0405231	0.0668006	-0.276499	-0.204877	-0.0287612	0.321722	-0.0993671	-0.0578717	0.279454	0.192883	0.226093	-0.0306275	-0.0882937	-0.327471

-0.275092
0.184289
0.301733
-0.559114
-0.265657
0.583252
-0.875098
-0.0312068
0.498556
0.434411
0.89813
-0.131563
-1.09668
0.215433
0.265115
0.087274
0.189014
0.277669
-0.355253
0.972576
0.349737
