																																																	
0.899089	0.990882	0.00894794	0.0331531	-0.502235	-0.000935747	0.00872678	-0.0318156	0.0363152	0.00914669	-0.0879251	0.0487378	0.00855407	-0.387641	-0.00651823	0.0429822	0.00867115	-0.00488753	0.882467	0.000477528	-0.309816	-0.876187	0.481755	-0.0152902	-0.0364418	0.00725043	0.0611537	-0.0958395	-0.808922	0.14114	0.0693839	0.0102032	-0.0322993	-0.337514	0.0303866	-0.0634627	0.103614	-0.0271071	-0.096829	0.0615138	0.00892818	0.00532345	0.0183812	-0.003003	-0.000569609	-0.82586	0.00920919	0.0156013	-0.0441044	-0.0503936
0.487253	-0.705315	0.294316	0.149773	0.243728	-0.34082	-0.0708415	-0.0661045	-0.201673	0.037455	-0.0245187	0.0177463	0.346741	0.157474	-0.342771	0.196069	0.332079	-0.334387	-0.72804	0.068132	0.160243	-1.19101	0.240145	0.0369265	-0.149417	0.323962	-0.0934802	-0.253572	-0.933761	0.0920419	-0.120224	0.364333	-0.102404	0.0833608	-0.166163	0.0805604	-0.0984411	-0.0195378	0.0360667	-0.0105269	0.276378	-0.192185	-0.036088	0.104542	0.274455	1.10205	0.296824	0.26479	-0.179538	0.17076
-0.0591047	0.0542758	-0.118365	-0.0886258	-0.0521029	-0.199127	0.0299614	0.117046	-0.138049	0.130067	-0.115258	-0.015297	-0.034705	-0.0619204	-0.0475623	-0.160695	-0.10511	-0.0765744	-0.0926383	-0.0353296	0.0948324	0.0278785	-0.0906582	0.00466143	0.123031	-0.12143	0.116228	-0.168577	0.169403	-0.157863	0.0128357	-0.0604781	-0.00588048	-0.180663	-0.0508619	0.10137	0.0043128	0.0961607	-0.0068319	-0.125127	0.203515	0.0397593	0.0480513	-0.0696798	0.162067	0.0518012	-0.0856239	-0.102724	0.129765	0.040854

0.309645
-0.423542
-0.197545
-0.0851661
0.00978437
0.247714
0.0390427
0.0309918
0.13094
-0.0287479
0.0200835
-0.00873585
-0.258979
-0.03839
0.256454
-0.112751
-0.23708
0.246773
-0.399747
-0.037093
-0.0618197
-0.686804
0.0607273
-0.021301
0.0829061
-0.227039
0.0481021
0.156495
-0.453689
-0.0365498
0.0702662
-0.279383
0.0598836
-0.0335941
0.103439
-0.0526559
0.0574831
0.00524921
-0.0213341
0.0141519
-0.186799
0.117842
0.0177976
-0.0573533
-0.186647
0.675435
-0.20213
-0.171548
0.102801
-0.105934
-0.0265986
