																																																	
0.0768407	-1.39708	0.974077	-1.25607	-0.581262	-1.4236	-0.200257	-0.467505	0.873809	-0.427966	0.427997	-1.34966	0.76073	1.38557	0.0242563	-1.14973	0.202646	-0.452358	-0.7004	-1.71878	0.700927	-1.81176	-0.732376	-0.662807	-0.718941	-1.55688	-1.47508	-0.953135	-0.0683635	1.01789	0.544642	0.699158	-0.767853	-0.497773	-0.478952	0.422258	-1.17864	-0.540263	-1.53473	0.654948	0.943386	1.60868	-1.49628	1.37386	1.44449	0.964886	0.949773	-0.631452	-1.55627	-0.0919878
-0.91421	-0.673387	1.42224	-0.797314	-1.68721	1.56056	0.0887331	1.6813	-1.33902	-0.0753965	-1.20509	-1.23575	1.08669	0.547563	1.34004	0.239267	-1.48799	-0.330243	1.44457	-0.109984	1.34617	0.805388	-1.29599	-1.88133	-0.577071	0.00453515	-0.341251	1.15322	1.18757	1.48213	1.53423	1.29987	1.17886	-1.64639	0.966614	-1.54163	1.73923	-1.69419	1.09424	0.831114	1.4437	0.189883	0.778426	-1.46853	1.51065	-1.8435	-0.216344	-0.941655	0.562677	-1.12518
-1.24427	1.58014	-0.0893715	-1.36725	-0.689226	-1.49793	1.86652	-0.869331	0.427751	2.39967	-1.21269	-0.293106	0.657211	0.388866	-2.08868	-0.958234	1.63129	-2.54855	1.35191	-0.470548	-1.65642	-0.152159	-0.828957	0.83356	1.25899	0.392824	-0.68457	-1.59678	1.91931	-1.30197	0.353886	0.969411	-0.499793	0.228316	-2.32427	-0.705772	0.247159	0.641065	0.884391	-2.56883	-0.594368	0.340136	0.565716	-1.49113	1.32346	0.235858	-0.87418	-2.84306	-1.12479	0.621704

0.560055
0.351685
0.823117
0.43113
0.295039
0.256831
-0.584992
-0.288078
-0.877083
-1.65482
-0.301305
0.338299
0.101478
0.278826
-0.925275
-0.440235
-0.328916
-1.1167
0.574462
0.38169
0.187842
0.235224
-0.712948
0.470999
-0.0213472
0.106366
0.308455
0.194703
-0.818958
0.576661
-0.787421
0.369868
0.242207
-0.035214
-0.352843
0.691343
0.477384
0.0278131
-0.0714954
-0.581005
0.427895
0.663843
0.149264
-0.432802
0.419431
0.489902
0.613178
0.605673
-0.00543669
0.385287
1.10584
