																																																	
-1.00642	0.666374	-0.208872	-0.635742	0.0870767	-1.26697	1.6581	0.607151	0.0670219	1.44278	-1.02519	1.62412	-1.07621	0.750789	1.23272	-0.798173	0.63815	0.276881	-1.69641	0.111089	1.47032	-1.25091	1.84086	-1.35223	0.643051	-1.60236	-1.59521	0.905229	-1.04011	1.499	1.40634	0.46961	1.47646	0.248923	-1.05802	0.0675108	1.34911	1.46793	-0.429775	-0.0310993	-0.90112	-1.20539	0.871171	1.52565	-1.21713	0.653503	-0.633095	-1.21654	-0.448039	-0.431495
-0.498501	-0.628758	-0.27093	-0.352371	1.05027	-0.00511268	-0.113649	0.280521	1.26157	-0.823435	-1.05981	-0.316004	1.4552	0.344697	0.831185	1.70345	-1.4862	1.15065	-1.39851	1.57578	1.52	0.0939316	-0.0679752	0.967371	1.37282	0.41332	0.301002	1.37896	1.41168	-0.784287	-1.71825	0.176677	-0.570802	0.515968	0.875885	-0.0786324	1.22014	1.27265	-1.19808	0.791501	-0.0237872	0.15413	-0.379736	-0.0829325	-1.2664	-1.15473	0.391856	1.45176	-0.445137	-0.571975
1.00951	-1.74811	-0.234413	-0.76587	1.65398	0.0415176	0.36551	-0.117075	-0.0604104	0.213541	1.2087	1.09022	0.275095	-0.719787	1.01714	-1.60642	0.52766	-1.26588	-0.929019	1.1143	-0.224341	-1.46882	0.468045	1.86259	1.39241	1.69336	-1.3056	0.131034	1.57431	0.15366	0.568588	1.21204	-0.992145	-1.70921	-1.65511	1.71846	1.54397	1.67045	1.23809	-1.04845	-0.305308	-1.27892	-0.931611	0.0887782	1.65062	-1.24833	-0.9146	-1.31112	0.922213	1.15491

0.513706
0.638382
0.0502395
0.803994
-1.00058
-1.52417
-0.802998
-0.535071
-0.760258
0.925624
-1.32448
0.959029
0.800206
-0.115763
-0.822483
0.394573
0.242987
-0.735177
-0.507073
-0.316709
0.441423
-0.377904
0.74963
0.218654
0.729595
0.160465
0.969238
0.248474
0.110523
-1.13951
-0.0907039
-0.458428
0.00824194
0.0370614
0.304324
1.32466
0.234531
0.549937
-0.998504
-0.911751
-0.218377
0.166697
0.708046
-1.32059
0.19353
-0.677439
-1.39186
0.589477
0.304016
0.624942
-1.09043
