																													
-0.556694	-0.966746	0.016144	0.0691172	0.102287	-0.0345882	0.527728	-0.51687	0.319706	0.131755	-0.00503185	0.137668	-0.0938395	0.107257	0.00437979	-0.501566	0.0986885	0.449018	-1.23386	0.00133323	0.442208	-0.22149	-0.384316	-0.348403	0.0736788	0.0231424	-0.0363901	-0.728129	0.038751	-0.593154
0.908868	-0.105352	-0.456984	0.453112	0.691322	0.567562	0.222396	0.271486	-0.30971	-0.453512	0.729321	-0.246477	-0.389284	0.403188	0.380919	0.85635	0.36144	0.325984	0.48088	0.578462	-0.166442	-0.451608	0.0293304	-0.000395404	-0.60304	-0.750213	0.32485	1.08905	0.362058	-0.873524
0.103558	-0.181858	0.867628	-0.516838	0.3291	0.604926	0.0358894	0.756307	-0.143134	0.17924	0.825854	0.524289	-0.817835	0.501054	-0.54385	-0.230258	0.420137	-0.633649	-0.115372	-0.153793	0.478495	0.353654	0.5549	-0.240858	-0.68936	0.884414	0.0313703	-0.199806	0.0950761	-0.371209
																			
-0.229569	-0.271364	0.111198	-0.159399	0.477194	0.0771395	0.105113	-0.346868	0.134021	0.269431	0.202771	0.168953	-0.327808	0.140092	0.0769663	-0.0413322	0.0970566	0.0490351	0.242998	0.216971
-0.459783	-0.67581	0.27023	-0.0348095	-0.463025	-0.430339	0.293421	0.0784453	0.139434	-0.0938615	-0.154675	0.386651	0.279729	0.0663039	0.378484	-0.314104	-0.287085	0.311639	-0.0818553	0.26266
-0.386968	-0.175852	-0.257203	0.205325	0.695554	-0.0983041	0.272141	0.131159	0.0111682	-0.14349	-0.230478	-0.42475	-0.35493	0.242134	-0.598258	0.217976	-0.377849	-0.348664	-0.176646	0.387314
0.455907	0.028448	0.305171	-0.356387	-0.633535	0.260691	0.112106	0.219091	-0.0145333	-0.302415	-0.1199	-0.141529	0.326955	0.0748665	-0.0137395	-0.275552	-0.0241342	0.434591	0.127721	-0.159823
-0.194118	-0.128406	0.292618	-0.396484	0.198505	0.213942	-0.294955	0.189077	0.345449	-0.119503	0.0417269	-0.0159612	0.296331	0.147374	-0.00737225	0.244272	-0.185464	0.0388012	-0.244561	-0.271265
0.0899907	-0.0909994	-0.00342529	-0.0973381	-0.195975	0.468834	-0.0272132	0.652043	-0.0447747	0.145769	0.516766	0.151044	-0.324802	0.361184	0.0961783	-0.0399844	-0.0852177	-0.00481681	-0.123225	-0.00136004
-0.238058	0.353228	-0.267414	-0.16767	-0.162639	0.357458	-0.0679004	-0.308172	-0.35471	0.223955	0.198268	-0.30175	-0.0258063	0.0849893	-0.147692	0.16878	-0.214309	0.281325	-0.378162	-0.0936369
0.0832467	-0.0119251	-0.0172609	0.558434	0.275766	0.404803	-0.266601	0.187167	0.202862	0.210593	0.057344	0.461165	0.451116	0.15056	0.0774607	0.230043	0.221574	0.367947	-0.28035	-0.243253
0.138381	-0.115375	0.327754	-0.438373	0.154835	0.291045	0.21751	-0.22057	-0.0391131	0.317118	-0.178332	0.159133	-0.120968	-0.152067	-0.165492	0.010415	0.0351321	0.031381	0.16995	-0.083513
0.184355	-0.217244	-0.208117	-0.278729	0.533752	-0.101476	-0.127376	-0.0454433	0.0246782	0.0743916	-0.245091	-0.161615	0.0768177	-0.355256	-0.255575	-0.109803	-0.263283	-0.211802	-0.0813881	-0.242043
-0.107088	0.186819	0.227306	-0.120602	0.271213	0.56738	-0.293893	0.657579	0.115049	-0.175541	0.304917	0.269412	-0.0559075	0.381532	-0.427505	0.318901	0.160192	0.417704	0.241658	-0.293908
-0.221642	-0.160648	-0.27566	-0.233715	0.197826	-0.208871	-0.106311	-0.0198548	-0.158929	0.253522	0.204458	-0.161753	-0.337265	-0.108534	-0.352316	0.323387	0.0890414	0.054087	-0.0653751	-0.295813
-0.184837	-0.281668	-0.224995	-0.160783	-0.0750055	-0.278138	-0.363358	-0.476597	0.219691	0.225859	-0.41119	-0.447175	-0.105425	0.211281	-0.116465	-0.0358866	-0.363004	-0.0080344	0.0923697	-0.0705449
0.315335	0.108561	0.352102	-0.0473519	0.333252	0.418624	-0.172188	0.411489	0.0697271	0.0991267	0.125807	0.108951	0.0609231	0.241146	0.2173	0.00116281	-0.0944353	-0.104231	0.0919181	-0.219578
0.341349	0.08468	-0.223873	0.316487	-0.645641	0.300681	0.0498636	0.139823	-0.0198	-0.258291	0.361637	-0.00660451	0.45926	0.329485	0.446648	-0.201068	0.194216	0.198707	-0.182655	-0.405615
-0.11953	-0.268543	-0.178519	0.418041	-0.201137	-0.169165	-0.0154995	-0.0876144	0.014141	0.0618259	0.0992775	0.419109	-0.41338	-0.0845446	0.487883	-0.228762	0.266357	-0.183248	-0.166296	0.355317
0.437127	-0.089815	-0.116292	-0.40432	-0.244562	0.367323	0.150902	0.496633	0.179926	-0.241835	0.374552	0.280517	-0.0370991	-0.248147	0.202522	-0.158221	-0.0646357	0.143737	0.115376	-0.377788
0.491836	0.306552	0.22694	-0.318206	-0.295421	0.163631	-0.235726	-0.462328	0.330292	0.115972	-0.168266	-0.288851	-0.10444	-0.157309	0.087986	0.30794	-0.36127	0.273056	-0.390612	-0.0555421
-0.294495	-0.591988	-0.0479025	0.525634	0.18854	-0.268718	0.360436	-0.168236	0.021886	-0.106687	-0.185685	0.236155	-0.420241	-0.11471	0.531994	0.398321	0.208651	-0.328714	0.0939508	0.479176
0.0885751	-0.133952	-0.0991147	-0.0111171	-0.211867	-0.269977	-0.280815	0.446335	0.361272	0.000604221	0.131294	-0.315419	0.0595636	0.0779835	-0.0302712	-0.297722	-0.0542217	0.229105	-0.162289	-0.226517
-0.0492048	0.23599	0.123626	-0.525498	0.178908	0.437462	0.257378	0.416943	-0.434275	0.0800312	-0.0567019	-0.171911	-0.587702	0.286208	-0.384648	-0.383974	0.107264	0.069668	0.0708793	-0.133432
-0.339588	-0.26424	-0.325195	0.337075	0.219068	-0.27839	0.29041	0.299776	-0.164731	0.216469	-0.0706041	0.133364	-0.380987	-0.198488	-0.02482	-0.100614	-0.223033	0.100136	-0.0447302	0.391697
-0.250022	-0.198586	0.125013	0.0968941	0.304932	0.306831	-0.0906944	-0.0416562	0.251822	-0.247571	0.00796291	-0.26259	0.138322	0.340587	-0.24446	-0.230518	0.120567	-0.272288	-0.304157	-0.378951
-0.0232136	-0.284992	0.105918	0.190642	-0.330442	-0.0366874	0.422278	0.00708415	-0.143868	0.100834	0.22157	-0.191527	0.397226	-0.0955045	-0.269293	-0.197455	-0.197377	0.176806	-0.251773	-0.189726
0.302789	0.212619	-0.05462	-0.409876	0.215565	0.119889	0.060637	-0.647843	0.149224	0.331906	-0.359139	-0.575922	0.239496	-0.144781	0.213841	-0.20169	0.155502	-0.402158	0.00805531	0.0159865
-0.449949	0.168147	-0.340761	-0.0952105	0.561954	0.365577	0.151221	-0.126265	-0.40197	-0.304086	-0.0956741	0.420914	-0.444876	0.0578253	-0.166312	-0.165841	0.182443	0.0646055	-0.121734	-0.0865683
-0.110525	0.328908	0.35293	0.194392	-0.0897844	0.0631208	-0.146778	0.145739	0.0995569	-0.268089	-0.130232	0.00605378	-0.138573	0.31573	0.234293	-0.197546	0.320568	0.00637867	-0.267141	-0.128323
0.139452	-0.26824	0.203138	-0.070477	0.191774	-0.188157	0.056542	-0.454523	-0.358376	0.31389	-0.277411	0.261781	-0.472896	-0.127185	0.152038	-0.196815	0.347344	-0.212193	-0.171935	0.0980975
0.320847	0.0586434	0.0197213	-0.0740581	-0.349281	0.203766	-0.195194	0.278514	-0.190228	-0.206096	0.0683694	0.294564	0.319018	0.198447	-0.217133	0.0923996	0.0802252	0.130439	0.258928	-0.26185
-0.761597	-0.0266818	-0.16875	0.824363	-0.231972	-0.331515	-0.548367	0.392598	-0.192795	-0.0295426	0.262785	-0.0153114	0.356379	-0.288735	0.21952	0.175546	0.303356	0.311304	-0.21281	0.352367
-0.279577	-0.121802	-0.184646	0.107058	0.162236	-0.16004	0.447609	0.300771	-0.237467	-0.175966	0.298595	0.25741	0.0576252	-0.19031	0.240212	0.491311	0.105478	0.109483	0.233629	0.249211

0.92551
-0.737932
-0.428804
-0.667449
0.727649
0.525345
0.433829
-0.987232
-0.318513
0.0360765
-0.442337
0.891902
-0.564891
-0.282696
0.76372
-0.44546
0.269323
-0.273291
0.157261
-0.569232
0.00364262
