																																																	
-0.432812	0.293658	0.417648	0.398648	-0.0358774	-0.0448307	0.405247	0.406068	0.215868	0.40393	0.453181	0.038817	-1.16703	-0.350405	-0.535759	-0.375031	0.0149562	0.370508	0.389283	-0.59512	0.59585	-0.405361	-0.0738457	-0.585035	0.421065	0.192884	-0.589849	0.123966	0.0553852	0.261643	-0.508362	-0.51373	0.36271	-0.289374	-0.27364	-0.383302	0.053328	0.0381604	0.0652638	-0.449507	-0.0817815	0.420597	0.062097	-1.1566	0.361921	0.416545	0.430381	-0.390093	0.574338	-0.36548
0.219143	-0.0599783	-0.216423	-0.188925	0.403768	0.443822	0.167267	-0.210426	-0.276029	0.16587	0.210475	-0.438339	0.480067	0.184682	-0.651221	-0.173669	-0.4518	-0.182618	0.352733	-0.69837	-0.851532	0.17982	0.417267	0.712866	0.192433	0.3481	0.727244	-0.391459	-0.47239	0.122169	-0.668144	0.473429	-0.218176	0.232099	-0.210486	-0.172695	-0.455803	0.375299	-0.449111	0.538475	-0.237628	0.195783	0.432863	-0.465271	0.187271	-0.179731	0.209003	-0.194898	-0.699081	-0.161916
-0.185975	0.00680459	0.202144	-0.0516471	0.165029	0.0383342	0.142039	0.161734	0.254501	0.190298	0.218017	0.0685431	0.0886654	0.226175	-0.0290011	-0.018908	0.178268	0.268182	0.157503	0.252447	-0.681602	0.25528	-0.211021	-0.271558	-0.153135	0.344078	-0.32236	-0.263319	-0.194764	-0.269583	-0.179698	0.258008	0.136207	0.237776	0.0641699	-0.311842	-0.162981	0.215065	-0.210145	0.0786277	0.0756948	-0.184622	-0.285036	-0.0525039	-0.0326761	-0.255698	-0.261998	0.324368	0.238489	-0.229086

-0.47098
0.0718136
0.360271
0.396983
-0.162672
-0.452827
-0.38989
0.336945
0.143471
-0.391513
-0.128868
0.387326
0.572105
-0.309618
-0.72727
0.267821
0.489985
0.204339
-0.00190735
-0.974448
-0.915186
-0.43061
-0.213366
0.751272
-0.408893
-0.00551546
0.641908
0.239608
0.416232
-0.0760341
-1.05044
0.114482
0.255266
-0.16362
0.181488
0.38044
0.303278
-0.248922
0.305837
0.160501
0.0876351
-0.380764
-0.229126
-0.585209
-0.173058
0.491112
-0.257628
0.226631
-0.608301
0.274404
0.0956315
