																													
0.090826	-0.580131	-0.0814059	0.388846	-0.0834994	-0.0260583	0.0494702	-0.439522	-0.271663	0.197287	-0.0396729	0.109442	-1.15112	-0.202382	-0.291427	0.549572	-0.111699	0.307446	0.141088	-0.004604	-0.0598858	0.45223	0.482209	-0.477092	-0.761715	0.54972	0.357539	-0.464753	-0.0308076	-0.00755618
0.362804	0.892956	0.443865	-0.47768	0.4553	-0.226577	-0.267478	-0.649833	0.320529	-0.483056	-0.529683	-0.151274	0.259432	0.234282	0.448435	0.244066	-0.57292	-0.686939	0.378513	-0.540242	0.466606	0.182552	0.147067	-0.711605	-0.701525	-0.154646	-0.0985141	0.17373	-0.389491	0.355554
-0.154926	-0.206004	-0.789841	0.325337	0.411727	0.0984949	0.0921996	0.385465	0.650241	-0.00743125	0.925088	-0.474732	0.0746014	0.399797	-0.321991	0.241808	-0.874695	-0.628743	0.463885	0.589131	0.547656	-0.0856667	-0.736757	0.48566	-0.429787	-0.350895	0.418929	-0.0737282	-0.31215	-0.294493
																			
0.139728	-0.195198	0.0794871	-0.337653	-0.208181	-0.106496	0.39082	-0.0603207	0.18994	0.299236	0.199251	0.311645	0.0676084	0.268827	-0.328077	-0.162978	0.0274463	-0.0386948	0.0309329	0.139107
0.324784	-0.127814	-0.470606	-0.00293312	-0.085935	0.308887	-0.140804	-0.136365	-0.110834	-0.186249	-0.267346	0.0845181	-0.263299	0.34009	0.0380122	-0.354134	0.0160478	0.591631	-0.106218	0.0246815
-0.106803	-0.326686	-0.0535795	-0.0363202	0.0787202	0.179179	-0.275032	-0.0973071	0.537976	0.181644	-0.021983	-0.236912	0.139685	0.330067	-0.521701	-0.471978	-0.302615	0.00414168	-0.348236	0.341725
-0.256242	-0.0699263	0.227615	-0.450295	0.0124279	0.259052	0.241774	-0.225003	0.1093	-0.00941855	-0.00640124	0.0311373	0.206606	-0.313413	0.139609	0.308924	0.270459	-0.00135085	0.0855187	-0.0263343
-0.253958	-0.271355	0.0473883	0.0955995	0.247372	0.384715	0.30996	-0.451662	0.147581	0.0596539	0.664788	0.136803	-0.496224	-0.0502847	0.09268	-0.0534662	-0.177449	0.0437219	-0.108194	0.0873116
-0.0762785	0.0176172	0.195466	0.359677	0.210354	-0.31049	-0.101251	-0.108904	-0.0971314	-0.189306	-0.101358	-0.250302	0.0912403	-0.190207	0.361674	-0.0504299	0.321552	-0.137105	0.0563872	-0.351553
0.184332	-0.0523024	0.157873	-0.205985	-0.155432	0.0184927	-0.125414	-0.168233	-0.373157	0.143091	-0.212831	-0.080773	-0.0191276	-0.0885483	0.26189	-0.120802	-0.206346	-0.308779	0.0863592	-0.162583
-0.0870538	0.203599	-0.191338	0.465179	-0.243085	0.138092	0.0257737	-0.10095	-0.25391	-0.0998796	0.20792	-0.0324868	-0.074742	0.0958566	0.00708505	0.208469	-0.376753	-0.178039	-0.286311	-0.426574
-0.131147	0.182208	-0.0565774	-0.0306243	-0.329006	0.126218	0.372764	-0.497611	-0.276163	0.291798	0.215872	0.27843	0.184418	0.33752	0.360104	0.258317	0.332063	0.0964504	-0.242112	0.0861204
0.310906	0.340201	0.384851	-0.339465	-0.160184	-0.000299154	-0.371474	0.0103251	-0.0157729	0.133537	-0.0693591	-0.151649	0.402038	0.200668	0.0600961	0.396095	0.0689488	0.104649	-0.0522951	0.212548
0.152245	-0.0934024	-0.102393	0.176235	-0.00985529	-0.153621	-0.328726	-0.0985617	-0.64945	0.280265	0.0610891	0.026336	-0.0613815	-0.0184581	0.283708	0.276935	0.475473	-0.213862	-0.140692	-0.459438
-0.0633083	0.0505378	-0.0232323	-0.190531	-0.021715	0.106863	-0.202367	0.24736	-0.035841	-0.202115	-0.199495	-0.189734	0.0687685	0.305998	-0.182474	0.155146	-0.204487	0.0413853	-0.175062	-0.0554658
-0.139921	-0.0787595	0.265935	0.469405	-0.35489	0.364732	0.0307623	-0.0649607	-0.141662	-0.277374	-0.207618	0.0468575	-0.496038	0.0726701	-0.00958812	-0.347468	0.246375	0.235348	0.0695754	-0.208982
-0.181514	-0.275724	0.173077	-0.232525	0.063688	-0.104521	0.0987527	-0.428469	-0.0410585	-0.0671072	0.174097	-0.203031	0.122235	0.0632909	-0.109326	-0.142647	-0.0288609	0.247755	-0.0759892	-0.268899
0.0566354	0.284713	-0.361692	0.120494	0.320546	0.304588	0.238081	0.167911	-0.0694162	0.0474816	0.0130238	0.262815	0.00200572	-0.240246	-0.363117	-0.272892	-0.204489	-0.242586	0.0857304	-0.394566
-0.0525142	-0.341067	0.176139	-0.212541	0.349344	-0.346529	0.0688492	0.38104	-0.343466	0.345201	0.216521	-0.110576	-0.0527774	-0.114889	0.441966	0.331181	-0.202978	-0.379785	0.355313	-0.160717
0.165952	0.260999	0.308664	0.49425	0.358653	-0.0287533	-0.353306	0.437217	0.0897834	-0.00242017	-0.833227	0.28657	0.208231	-0.132181	0.0751945	-0.0748565	-0.187307	0.1918	0.0593771	-0.347762
-0.234395	0.325629	0.352177	0.230872	0.234771	-0.457781	0.181263	0.375446	-0.24482	0.0467021	0.183069	0.0376109	0.470025	-0.171539	-0.37376	0.129858	0.0481281	0.0349779	-0.167825	0.048863
0.0306975	-0.258917	0.0305898	-0.236135	0.000489111	-0.192003	0.19091	0.158528	0.114655	0.339357	0.662136	0.239703	-0.409494	-0.301755	0.289385	-0.032738	0.215413	-0.356606	0.204263	0.262396
-0.0903445	0.380484	0.200913	-0.0951156	-0.0166622	0.0801321	-0.0608634	0.110421	-0.37493	-0.328158	-0.0505976	0.140979	-0.210377	-0.10848	0.370026	0.0738705	0.422101	0.0746863	0.0861519	-0.290617
-0.0225498	0.0581286	-0.375187	-0.442464	0.123556	0.242291	0.0244321	-0.227559	0.150209	-0.280672	0.376037	0.238556	-0.335676	0.0597004	-0.0786371	0.210691	-0.196171	0.112251	-0.32932	-0.129437
0.0565694	-0.0142449	0.151397	0.0636815	0.291889	0.288276	0.118844	-0.285509	-0.0474079	0.24705	-0.180228	-0.0997085	0.0729459	0.00148719	0.321689	0.281408	-0.456155	-0.377937	0.215186	0.29567
0.292436	-0.126487	-0.0335693	0.189963	0.113812	-0.0704976	-0.127178	-0.135402	0.420288	-0.109225	-0.511172	0.310794	0.345524	-0.275019	-0.0878262	-0.0736937	-0.256692	0.291348	-0.182123	0.269885
0.101143	0.176929	-0.0555239	0.0709101	0.217227	-0.050093	0.0948339	0.161295	-0.0810949	0.304123	0.0738042	0.241828	-0.146484	-0.00511198	-0.259351	0.373935	-0.210193	-0.245185	0.0334877	-0.301871
0.0919001	-0.228079	-0.0706985	0.296478	0.297945	0.11941	0.331036	-0.314266	0.484498	0.0843855	0.62331	-0.190273	0.266361	0.24134	0.0593851	-0.147545	-0.00732981	0.300412	-0.117908	-0.0174845
-0.0819583	-0.0448103	0.259288	-0.358566	0.263285	-0.291121	0.189552	0.32835	-0.00435665	-0.192913	-0.177509	-0.296819	0.283543	0.265089	0.024524	0.22973	-0.249806	0.331875	0.249979	0.214896
0.173179	0.0968044	-0.0777813	0.330474	-0.0490951	0.0409695	-0.263417	-0.263615	-0.262154	-0.265895	0.426084	0.233851	0.0769352	-0.275484	0.427566	0.0620224	-0.179108	0.0391242	-0.146227	0.107595
-0.166423	-0.200423	-0.283241	-0.231905	0.147265	0.148917	-0.0414186	-0.300533	0.0307708	-0.221566	-0.328861	-0.140523	0.0961161	0.249951	-0.459571	0.30108	0.16973	-0.32632	-0.271701	-0.161761
-0.133662	0.269057	0.272756	0.427242	0.283022	-0.176196	-0.213741	-0.161283	-0.251734	0.250215	-0.472578	0.0481279	0.112101	0.108844	0.332491	-0.235203	0.17963	0.000623283	-0.0435976	0.0519912
-0.330252	-0.308212	0.257632	-0.04419	0.340463	-0.0591772	0.345803	0.0487205	0.477704	-0.302153	0.451441	-0.0116793	-0.160814	-0.247952	0.0854701	-0.304995	-0.105978	0.0566423	0.0429297	0.335398
-0.235143	-0.135669	-0.0940833	-0.0347694	0.276917	-0.214368	-0.155159	-0.474823	-0.301357	0.277148	-0.103677	0.277348	-0.462286	-0.105121	0.367803	0.210981	0.20487	-0.343874	0.0373357	0.132958

0.16547
0.286386
-0.392689
-0.796136
-0.0710609
0.604934
-0.505891
0.563049
-0.697398
-0.252803
-1.10425
-0.0784466
-0.715973
-0.0911612
0.772343
-0.647382
0.68874
0.727085
0.102572
0.718158
0.211917
