																													
-1.04659	0.671123	0.441278	0.668008	-2.2963	0.866611	-0.109129	-1.86536	-0.981008	-1.89374	1.61899	1.11428	-1.98143	0.548097	1.25771	-1.49285	-0.0578856	1.78503	-0.0374305	-1.28572	-0.504042	-0.417393	-0.317172	-0.695942	0.410343	0.893223	0.156738	-1.97887	-0.40699	1.8107
-0.6983	-1.80934	1.23943	-0.500354	-0.741238	1.15489	0.634745	-0.452062	-1.76955	0.192472	0.157112	-1.41926	1.56084	-1.65741	0.4877	-0.0353248	-1.18945	1.04495	-0.122223	-0.369267	-0.720812	-1.94048	-1.1134	-0.556756	1.18149	-1.16401	-1.33792	-1.03135	-0.86057	0.154392
2.15184	0.528579	1.32223	2.02271	1.12191	0.115682	1.18502	0.12728	-1.21926	-0.652552	0.394406	-0.345758	1.77266	1.20607	-0.554507	0.182552	0.212446	0.0560503	-1.96022	0.106395	-1.47387	-0.372577	0.209768	-1.28152	-1.49218	0.0911534	-2.0908	-0.300155	1.43966	-0.406675
																			
1.32882	-0.428734	-0.597533	-1.37954	-1.15008	-0.812855	-0.662009	0.750664	-0.875652	0.965241	1.37909	-0.0473574	-0.0750784	-0.0691457	-0.184645	-1.03635	0.688736	1.69736	-0.427173	-0.186039
-0.754793	-0.0745075	1.17267	-0.693854	-1.24338	-1.44835	1.33293	-0.364198	0.939096	0.556244	0.731322	-0.149449	0.367649	1.11357	0.115828	1.17628	-1.85762	0.504656	-0.507725	0.208915
0.126195	0.870457	1.13117	1.18196	1.04918	-1.01861	-0.491212	1.4385	-0.733616	-0.234382	-0.134965	-1.55321	0.24122	-0.265004	1.25072	-1.19163	-0.5677	0.877895	1.70512	1.23355
-0.287844	0.308402	-0.345104	0.29176	1.72728	0.636606	-0.949716	-1.51762	-2.06935	0.638548	0.104083	1.1069	0.152423	1.44903	1.21692	-1.50979	0.431161	-0.694977	-1.54863	-1.1536
-0.879278	0.162591	-1.04828	-0.858944	-1.24046	-1.68894	-1.44539	0.23963	-0.96113	1.32468	-1.07615	-1.1998	-1.29236	1.6556	0.63024	0.748089	0.308859	-0.161971	0.581679	1.22833
1.31059	0.422217	-0.335832	-0.458259	-1.57041	-0.760878	-1.48207	0.663966	-1.35738	0.271976	1.20134	-0.0369425	0.749089	-0.985868	0.00518058	0.287549	1.86442	0.63619	1.39297	1.72273
0.483844	0.96295	-1.47323	0.188738	0.805082	0.722931	1.13881	0.452483	-0.451191	-1.2638	-1.18613	1.50506	-1.3786	0.998043	0.899877	-1.10213	1.52621	-1.03543	-1.75131	0.757369
0.56959	-0.600049	1.18067	0.63947	1.38976	0.293883	1.2607	-1.335	-0.175984	1.10536	-0.868624	0.0949069	-1.04278	-1.13188	-0.327254	0.572899	1.28591	0.129969	-0.457931	-0.454395
0.790245	-1.13106	0.187812	-1.29212	1.4019	1.07783	-0.50583	0.411201	-1.70146	1.45744	-0.461338	-0.803823	-1.3022	0.0612652	-0.679761	0.892696	0.00321094	1.84845	0.844595	1.7274
1.06618	0.355211	-0.74111	-0.0957725	0.587301	-0.955798	1.50537	-0.411957	0.328927	-1.32227	1.40128	-0.783198	-0.875212	0.221499	1.64501	1.61129	0.333721	0.693882	1.57386	1.92267
-0.740239	0.37624	-0.534065	0.861392	-0.0922937	0.418807	1.83836	-0.509445	-0.647883	1.44128	-1.35669	1.28405	-0.506269	1.6646	0.730059	0.297303	0.189808	0.344275	-1.55098	0.0154708
-0.806147	-1.4037	1.52775	0.145316	-0.0292481	-0.521571	1.50862	-1.08684	1.65123	-0.380087	0.579174	-0.820755	-0.352116	0.687053	1.33145	-0.397744	-1.88583	1.49416	0.544549	-1.34435
-1.56322	-1.13896	-0.521785	-1.09068	1.35058	-0.980478	1.57691	-1.05646	-1.4162	-0.144958	1.88157	-0.53856	1.42011	0.983225	0.576569	1.49959	-0.623639	0.0510685	-1.20997	1.14586
0.130535	0.68063	1.13934	-0.140849	-0.189515	-1.07385	-1.38162	-2.04136	0.325309	0.261044	-1.22417	-1.64395	-1.57297	1.30929	-0.699773	1.18393	1.24127	-0.311328	-0.214488	0.396674
-0.535392	0.628404	0.821117	0.252338	-1.6386	0.370235	0.208025	0.900639	0.978277	1.03882	-1.6325	-0.663474	-1.622	-0.0612174	-0.716111	-1.64224	-0.955808	-0.200246	0.673953	0.337757
0.472657	0.674306	-1.67124	0.32341	1.2217	-0.747901	-0.804157	0.139776	-0.0556209	1.55953	0.194308	0.211913	-0.860294	-0.948268	0.109682	-1.18559	-0.680807	1.25963	1.27582	1.22573
0.0925281	0.586907	0.164636	1.41572	0.116655	0.656562	-1.05362	0.314689	-0.412834	1.27705	1.4186	1.28704	-0.285437	0.683338	-0.13303	0.451475	-1.35461	-1.4094	1.22624	0.555665
-0.485116	-0.0720182	0.521787	-0.532439	-1.523	0.843583	-0.108137	-0.340354	0.832256	-0.176234	-0.369437	0.376981	0.694252	-0.295474	1.32028	1.17439	-0.185283	-1.51883	1.07479	0.265796
-0.362163	-0.145041	1.29277	1.03274	-1.71305	-0.174815	1.73711	0.010204	-0.848743	-0.021558	-1.66581	1.53751	0.792413	-1.56493	-1.4936	1.61826	0.368258	-1.05802	-1.80978	0.262987
-1.46853	-0.0448962	0.671078	-1.70431	0.332612	-0.305585	0.086123	1.04805	0.20026	-0.785567	-0.0638634	-1.24975	-0.896008	0.209894	0.73432	0.27296	1.60436	0.0958731	0.683968	-1.20121
0.43355	-0.808253	1.1899	-0.494753	-0.945653	1.17719	-0.895795	0.926394	-1.72312	-0.748984	-0.956746	-0.940416	-1.10404	1.1354	0.374214	-1.68452	0.885156	-0.485284	0.0616543	-1.19638
0.770943	1.43896	-1.3834	1.52175	-1.04666	-0.991496	-0.293791	1.32649	0.35387	-0.547425	-0.805993	-0.747559	-0.426451	0.593378	1.34364	-0.691868	0.970817	-0.819287	1.60153	-0.0754243
0.295103	1.22156	-1.55995	1.14427	1.36883	-0.718738	-0.996397	-0.485228	-1.75506	-0.67488	0.421972	-0.829585	-1.37803	-1.16063	0.391469	-1.13621	1.48324	-1.04953	-0.0368659	-1.66956
0.938244	-0.357282	-0.108627	-0.862273	-0.861131	-1.32798	1.57447	1.26643	-0.964375	-1.27812	-1.17395	0.645818	0.674832	1.56148	-1.68008	1.37089	-0.0844865	0.384359	0.325656	0.291703
0.749869	-0.300815	-0.325244	-0.980025	1.60652	-1.44319	1.25149	0.602134	0.226381	-1.36262	0.486049	-1.25883	1.54721	-0.913932	-1.69328	1.47983	1.42068	-0.995903	0.929859	0.803051
1.52886	0.935122	0.338442	0.222948	-0.0120353	-1.58465	1.79102	0.97888	1.76268	1.20618	0.557031	-0.45052	-0.739803	-0.709736	0.110109	-0.794667	-1.61065	1.31947	0.640686	0.884036
-0.815775	0.691704	1.17653	1.08722	-0.432789	0.605036	0.54016	-1.67505	-1.38809	-1.38832	-0.690346	0.872018	0.494953	-1.23075	-0.76902	1.63664	0.835726	-1.37856	-1.57701	-1.03167
0.341176	1.64219	1.23591	0.470814	-1.14875	0.165215	-1.03727	1.05449	1.00096	-0.042128	-0.65478	0.591752	-0.0553342	-0.762195	1.24585	0.863043	0.364159	-0.929056	-1.78915	1.85749
-1.00267	-1.45687	0.477565	0.469815	-1.41991	0.0771085	-0.726548	1.43398	-0.325722	0.681485	1.65636	-0.979028	0.12192	1.47963	1.42251	-0.503796	1.03797	0.778472	-0.914171	-1.52188
-0.979612	-1.09868	0.625396	1.37691	-1.69022	1.43032	-0.386646	-1.25614	-0.116465	-0.208068	0.460636	0.993877	-0.96625	-1.52877	-1.18296	1.52966	-0.292821	1.08445	-0.23025	1.39075
0.713917	1.41906	-1.47262	-1.53113	-0.324554	1.34704	-1.41521	-0.235798	1.11967	-0.36353	1.64023	-0.110476	-0.531806	-0.0647904	-0.417225	0.983284	-1.03367	-0.882572	-0.769235	1.28577

-0.755483
-0.252878
0.171777
-0.28849
-0.433911
-0.510491
-0.493561
0.601552
-0.489881
0.735644
0.590381
0.499577
0.255851
-0.322662
-0.0585764
0.470003
0.208485
-0.756906
0.348912
-0.353699
0.625678
