																													
-1.57709	0.701887	-0.740536	1.20326	0.852467	1.34005	0.386632	-0.239593	-1.44152	1.45787	-0.352322	-1.41842	0.129448	2.37461	0.602551	-0.6431	1.55654	0.423485	0.780203	0.197431	-1.37058	-1.40481	1.00426	0.289888	-0.801041	0.771369	1.28269	-0.210874	-1.42385	0.934313
-1.42379	1.3691	-0.14968	0.0260954	1.18923	0.0969104	-0.0780838	0.222388	-1.18853	-1.03765	-0.597218	-1.38933	1.05571	-0.713737	-0.445168	-1.14565	0.0505898	0.358788	-0.988096	0.383273	0.713406	-1.8577	-1.41198	-1.00236	-1.52731	1.21916	1.32713	-1.03196	-0.542892	1.51731
0.415429	-0.567737	0.351108	0.774984	0.0113475	-1.10481	0.368859	-1.69235	0.470807	-0.680934	0.427334	-0.922749	1.87502	0.979825	-1.98395	-1.55927	-0.711895	-1.24833	-0.0787703	1.51865	0.621912	-0.925689	-0.280562	1.46304	0.43393	-1.64009	0.636514	1.40926	0.383457	-1.42563
																			
0.753809	-0.90741	-0.736125	1.01812	0.733995	-1.49688	0.712909	0.0835963	-1.02505	0.217276	-0.619974	1.19299	-0.436564	-1.08304	-1.61188	0.98787	0.583404	-0.00688382	1.11986	0.477032
1.52098	0.807899	-1.12365	-0.440545	0.780988	-0.107776	0.474428	1.66601	-0.876257	1.19246	0.551621	-0.270228	0.38448	-1.47567	1.07772	-1.00842	-1.39972	1.44499	-0.273519	-0.875351
0.746988	-0.644198	0.461958	1.55809	-1.49571	-1.12748	0.637578	-0.135995	-0.421618	1.21864	0.157823	0.180898	0.704241	-0.361205	0.15617	1.33795	0.758986	0.707101	0.506979	-0.260944
1.03697	-0.775601	0.987796	1.18843	0.864807	-1.60405	0.997507	0.720038	0.0603506	-1.10686	1.70514	-0.417853	0.0428888	0.32339	-0.788509	-0.821184	-1.35777	-0.874265	1.43034	1.45123
1.03377	0.839689	-0.307736	-1.29203	0.749148	-0.193889	0.875357	-1.01312	-0.694809	0.646111	0.833744	-0.178014	-1.75923	0.40184	-0.922844	-0.847189	-0.26242	0.814054	-1.2188	1.50419
-1.13654	-0.98091	-0.58078	-1.52584	1.11521	-0.163761	-1.06659	-1.21182	1.09401	-0.661949	-0.348755	-0.681948	-0.700037	-1.0925	0.514039	0.328143	1.3805	0.487448	-0.437175	-0.785827
-1.03073	0.65411	0.252409	-0.128352	-0.439876	-1.65968	0.596237	-0.560795	-0.592308	-0.28278	1.25428	0.584167	-0.292692	-1.23933	-0.77501	-0.730832	-0.00390556	1.25874	1.01745	1.71643
-1.59906	0.843268	0.856148	-1.04752	1.48586	0.829214	0.941683	0.508464	-1.23388	0.761312	1.63834	0.790133	-0.291279	-1.77266	0.46636	-0.929789	-0.780313	-0.234267	-0.699029	0.621648
-0.994902	-1.15417	0.716697	0.10269	0.0803147	-1.00484	-0.647846	-0.198189	-0.864248	-0.115676	-0.951426	0.999296	1.36775	0.579886	-0.0849069	-0.666132	0.829851	-1.24364	-1.21743	-0.791102
1.49152	0.727198	-0.190323	-0.443911	0.182166	-0.197496	-0.634496	0.0324067	0.574823	0.982544	0.373453	-0.373381	0.503008	-1.0991	-0.849246	-1.40508	0.32419	0.942123	0.942641	-1.2776
1.61261	1.56292	0.200381	1.54247	0.289288	-0.617917	-0.634719	-1.35098	-1.00224	0.267102	0.886906	0.271076	1.29764	-0.952735	-0.0779667	0.12721	1.48761	-0.437843	-1.36657	-0.0625223
-1.15457	0.915916	-0.77387	0.626349	0.924085	0.526266	-0.162577	-0.576857	0.239366	-0.381216	-0.886482	-0.795494	0.0938633	-1.63293	0.233214	0.502758	0.33302	-1.33964	-1.42505	1.47981
-0.997708	1.39493	-1.6435	1.0802	-1.05598	1.27543	0.514099	1.2987	0.599946	-0.0166782	1.43661	0.963574	-0.705786	1.60706	0.242429	0.0593426	1.47976	0.824018	1.22905	0.404058
0.652215	0.0963295	-1.61623	-1.61832	0.519707	0.4848	-0.358927	-0.863911	1.29371	0.176687	-0.190409	-1.22738	1.57585	0.483385	-0.274051	-0.909119	-0.80557	1.24554	-1.42774	-0.619741
1.35063	0.361386	-0.917982	1.51566	-0.177307	-0.491695	0.791716	-0.602531	-1.6919	1.57797	-0.267773	1.26168	1.10663	-0.215061	0.683515	1.60641	-0.110523	0.347289	-1.28365	0.472742
1.47452	1.24817	0.980399	1.60228	-1.53658	-0.184401	-1.11325	-0.336041	-0.714121	-1.56896	0.916428	-0.683842	-0.542404	1.40596	-0.122537	-1.26142	1.43196	0.497187	-0.14448	0.193798
-1.74445	-0.986951	1.69816	1.50024	0.710258	-0.990344	-0.507437	-1.09929	-0.041765	0.814339	1.11607	-0.673596	-1.74805	0.601134	-1.41457	0.878586	-0.188321	0.0367611	1.06842	0.128884
1.76607	1.53779	-1.32988	1.57034	0.243462	0.822155	0.891677	0.699425	-1.11296	-1.09893	0.608978	1.51067	0.280647	-1.03671	-0.402766	-0.284328	-1.37659	0.688293	0.939637	-0.98421
0.708798	-1.28558	-0.837113	-0.392827	0.953653	0.686373	-0.360356	1.53018	0.686754	-0.449217	-1.09316	0.341741	-1.12188	-1.1434	0.488072	-1.47713	0.787716	-0.143983	0.113776	-0.790308
-1.52415	-0.28428	-1.44521	-0.165081	1.34471	1.64161	1.23257	-0.163306	0.726211	-0.0151054	-1.64982	-1.79724	-0.169079	1.44591	-1.89846	-0.554946	-1.63463	-1.40333	0.0475267	1.52645
0.693491	1.54809	1.02776	-0.564873	-1.62151	-0.590953	0.963309	1.05078	0.543053	-1.09587	-1.25078	-0.74858	-1.13638	-1.52463	1.24883	0.298127	-1.69622	1.04574	1.18066	-1.52105
-0.581946	0.635314	1.53332	-0.331394	-1.47026	1.0344	-0.501523	0.757056	1.61137	-1.55376	0.453741	0.481172	-1.5817	1.21323	-1.76252	-0.0942929	0.0850211	-1.34867	0.148462	-0.992544
0.93764	0.0433588	0.069954	0.404989	-1.13418	0.468391	1.74209	1.2923	-1.25798	1.51146	-1.14638	0.0883093	-0.323631	-0.659025	-0.687927	-0.426408	0.596545	0.248902	0.912877	0.474359
-0.0691908	-1.4244	-1.42857	-1.25382	-0.0844458	1.44768	1.5747	0.596576	0.598687	0.335599	1.58977	-0.242244	0.610187	1.04084	0.0541404	1.26215	1.1198	1.04445	-1.2387	-0.860105
-1.49669	0.0644011	-0.144441	1.33586	1.58084	1.45973	-1.29125	1.13089	1.31582	1.28684	-0.466154	-0.201428	0.730308	0.319926	0.991615	-0.200619	1.24758	-0.820753	-0.453218	-0.433895
0.47574	1.13573	0.00553985	0.111541	1.25137	0.376647	0.283214	-0.457985	-0.120623	1.14924	0.07319	1.67801	0.183955	-0.184514	1.00942	-1.62457	0.505553	0.242984	-1.02496	-1.61924
1.56201	-1.29811	-1.26054	-1.05862	-1.57517	0.598174	-1.31951	1.38097	0.177116	-1.48493	1.17024	1.627	1.42916	-0.908522	-1.37144	0.694625	1.7931	-0.671608	-1.02471	-0.0891531
0.635637	-0.864435	1.29668	1.51479	1.25698	0.0829262	0.542837	-0.761251	0.792124	-1.30504	-0.357872	-0.148777	1.02439	-0.744453	1.3141	-1.47961	1.16175	-1.46265	-0.149252	0.929848
-0.875712	0.43917	1.01484	-1.08449	1.73097	1.09219	-0.416675	0.509355	1.23819	0.299515	-1.53149	-0.0481112	-1.07569	0.510986	1.2853	-0.698396	-1.46226	1.14775	-1.63453	1.39176
1.40799	-1.26355	0.355392	-1.28112	-1.19223	-0.560099	-0.0277915	-0.710819	0.497885	-1.25582	-1.6115	-1.32308	-0.159824	0.420183	1.48512	-0.917206	-1.26641	1.22528	-0.880931	0.308509
-1.19555	-1.30158	0.701628	1.28518	-0.896303	0.708439	-1.80134	-0.370292	0.515898	-1.51337	-1.6619	1.0514	-1.32774	-0.0631145	0.30102	0.573187	0.042339	1.4172	0.937603	0.767192

0.301199
-0.484146
-0.286641
0.764584
-0.228012
-0.26208
0.21833
-0.529228
0.602498
0.567461
-0.0946616
-0.395601
0.454588
-0.270335
0.827881
0.232422
0.130703
0.98835
-0.501198
1.14452
-0.628245
