																													
-0.517408	0.0158026	-1.0741	1.06746	-0.240008	-0.071419	0.0170768	0.468054	0.106168	-0.196251	0.0784274	0.0405381	0.017182	0.0104721	0.451345	-0.181432	-0.00646062	0.572507	0.533169	-0.7979	-0.000142376	-0.731701	-0.614328	-0.564349	-0.0214293	0.0118927	0.661332	0.0611225	-0.0155044	-0.608976
-0.0370995	-0.419958	-0.134643	-0.266982	0.445561	-0.229305	0.454973	-0.711161	-0.121543	-0.633506	-0.260339	-0.267638	0.312319	0.21151	0.803192	0.242448	-0.321756	-0.303098	-0.197038	-0.189805	-0.301843	-0.356087	0.905126	0.353253	0.22912	0.314192	0.988498	-0.472914	0.268819	-0.297999
0.939167	0.220155	-0.226574	-0.592577	-0.210812	-0.296602	-0.833392	0.00454111	-0.00462552	-0.179796	-0.0300549	-0.00839817	0.458367	0.111693	-0.0624733	-0.509054	-0.42599	0.484956	0.368302	-0.387192	0.0327105	0.521951	0.320048	-0.341121	-0.144112	0.272425	-0.329193	-0.524347	-0.149786	-0.659458
																			
-0.215659	-0.300529	0.226177	0.391399	0.185415	-0.235611	0.196121	-0.642923	0.194819	-0.02847	0.144598	-0.158401	-0.744192	0.245465	0.189914	-0.0923245	-0.128327	-0.36697	-0.249474	0.112446
0.322424	0.00497395	0.18993	0.292406	-0.366669	-0.179711	-0.27244	0.368157	-0.247441	0.0744999	-0.209337	-0.0787215	-0.370019	0.214081	-0.19678	-0.216737	0.0593985	-0.0137188	0.140556	0.207383
-0.600226	0.174091	-0.215078	-0.336375	-0.183926	-0.255572	0.0885188	0.325236	-0.105663	0.194784	-0.0056732	-0.25383	0.141941	-0.0399162	0.0384408	0.112959	-0.178734	0.215539	-0.186382	0.490237
0.232135	-0.320541	0.0431526	-0.32405	-0.0684405	-0.12149	-0.00573166	0.766195	-0.233312	-0.215955	-0.203901	-0.130865	0.553539	-0.0913867	-0.188669	-0.313172	0.305968	-0.0602637	0.16317	0.242701
-0.381633	-0.134619	0.282123	-0.0852299	-0.0825656	-0.168866	-0.0456727	0.0807741	0.0115275	0.290289	0.134442	-0.0364241	0.30999	0.217829	0.199232	0.0441885	0.136185	0.449818	0.155673	0.296468
0.39501	0.115369	-0.00838403	0.413621	-0.275863	-0.213842	-0.296657	0.431165	0.271324	0.322637	0.201166	0.162469	-0.129937	0.263256	0.228298	0.177047	-0.00913576	0.251132	-0.172354	0.294422
-0.171061	0.38863	-0.114246	-0.432972	-0.056133	-0.308005	-0.0631981	0.0469601	-0.229777	-0.524006	0.281403	-0.00059026	0.704823	-0.180231	0.218412	0.231711	-0.112258	0.360817	-0.0568414	0.0384559
-0.0662131	-0.183619	0.0293224	0.328003	0.31649	0.270717	0.178314	-0.285694	-0.392747	-0.307968	0.388889	0.179192	0.116078	0.254285	0.12453	0.0980558	-0.193086	-0.465976	-0.239415	0.33429
-0.246772	0.282224	0.234979	0.292536	0.208362	0.212495	0.00747496	0.0275116	0.285676	0.370501	-0.120961	-0.240454	-0.150358	0.146955	0.126224	0.234397	0.161582	-0.325538	-0.31401	-0.116089
-0.386529	-0.166811	0.18726	-0.0942243	0.242413	-0.129649	0.237517	0.28549	0.248994	0.20268	-0.087843	-0.240815	0.0377557	-0.31155	-0.253865	-0.36249	0.0367836	0.351182	-0.132107	0.298687
0.0100213	0.195247	-0.027917	-0.112679	0.0166442	0.286457	0.0140378	0.392334	-0.0311998	-0.00238567	0.16032	-0.222714	-0.0894051	0.0040603	0.264803	-0.135714	-0.298034	-0.213288	0.090275	-0.12975
0.4442	0.238232	0.270879	0.205964	0.117404	-0.0242969	0.297395	0.479297	-0.281756	0.157934	-0.201577	0.0141921	-0.358328	-0.015415	0.0349031	-0.00969783	-0.277448	-0.243892	0.309351	-0.190784
-0.0645495	-0.316227	-0.175992	-0.118474	-0.00570661	-0.457793	0.0328008	-0.640001	0.0229153	-0.37957	0.0927717	0.0653584	0.359181	0.101773	-0.266046	-0.0397522	-0.297171	0.316462	0.144033	-0.548894
-0.511321	0.299859	0.208401	-0.00240221	-0.154481	0.0677436	0.187213	-0.369631	-0.343744	-0.42694	0.123793	-0.178712	0.446043	-0.0633218	0.297517	-0.225711	-0.00772801	0.176592	-0.231804	-0.0688481
0.281429	0.267644	0.275215	0.0799964	-0.201097	-0.135429	0.0610485	0.0643715	0.0147764	-0.194191	-0.417354	0.228364	-0.208546	0.0166531	0.10638	-0.0712179	0.23615	-0.313773	-0.31008	-0.449835
-0.23976	-0.24363	0.0768999	0.0957751	0.140084	-0.25817	0.0624856	0.191891	-0.148457	-0.0206307	-0.0582847	-0.175876	0.42331	0.0385612	0.210901	-0.243683	-0.120026	0.321521	0.0233447	0.20674
0.427021	0.32485	-0.249418	-0.106385	-0.15694	0.17636	-0.133077	0.626834	-0.22221	0.197649	0.159361	-0.0502322	-0.160553	0.0784459	-0.0666372	0.1387	0.0946026	-0.170292	-0.169909	-0.102056
-0.093087	0.0208289	-0.151694	0.329964	-0.324242	-0.113442	0.189428	-0.0572512	-0.275133	-0.279639	0.198	0.185394	-0.273574	-0.133469	0.215718	-0.231154	-0.00542427	-0.334033	0.0811378	-0.169477
0.089654	-0.278471	0.192472	-0.0557091	-0.34144	-0.290607	0.0860729	-0.245661	-0.15072	-0.254217	0.0990124	-0.213258	-0.261412	0.0028774	0.0862639	-0.217633	-0.0243266	-0.333542	-0.175486	-0.317243
-0.279782	-0.230397	-0.239199	-0.321797	-0.211885	-0.271021	-0.0233712	0.12003	-0.358254	0.144471	-0.269299	0.370849	0.362366	-0.0790962	-0.302411	-0.199882	-0.0762621	0.131932	0.0877507	0.0723429
0.120027	0.109405	-0.104399	0.473268	0.0446813	0.143613	0.275607	0.407695	0.128003	0.211662	0.0532491	0.0321916	-0.556329	-0.00111638	0.0489823	-0.345624	0.0342165	-0.229615	0.00328275	0.461234
-0.358551	0.270041	0.196132	0.18078	-0.251992	-0.384861	0.116559	-0.528804	-0.298279	0.236612	0.0103238	0.188296	-0.605411	-0.395397	-0.294303	-0.398736	0.160984	0.0014777	0.0403544	0.0323234
-0.318889	0.113699	0.205256	0.332103	-0.148761	-0.00543744	-0.0777429	0.385034	-0.0353965	0.602413	0.0239042	-0.0478284	-0.563167	0.115166	-0.204345	0.140006	0.395984	0.249369	-0.00780028	-0.336401
0.233232	-0.0176935	-0.210345	0.0936071	-0.0185179	-0.358573	0.206178	0.057183	0.132972	0.286234	0.154455	0.113971	0.238143	0.255282	0.198205	0.250396	0.204693	0.3708	-0.0357207	0.376102
-0.531796	-0.118058	0.184203	-0.522271	0.120045	-0.236025	0.0606659	-0.535814	0.0292486	-0.238659	0.192642	0.34048	0.265516	-0.222367	-0.0179596	-0.264695	-0.00902323	0.173439	-0.141105	-0.236819
-0.131436	0.2175	-0.0918546	-0.429699	-0.31023	-0.238441	-0.0917563	-0.457079	0.0246717	-0.435623	0.157082	-0.166756	0.0186445	0.263611	0.269502	-0.0693718	-0.239491	0.108669	-0.237421	-0.166255
0.201128	0.0409675	-0.0829645	-0.061206	0.241809	0.324177	0.152824	0.340105	0.00828351	-0.18288	-0.515764	-0.108755	-0.143376	0.283968	-0.435092	-0.251159	0.606467	0.0933618	0.158711	-0.453962
0.507768	-0.0625234	0.0751392	0.223921	-0.256832	0.474942	0.27153	0.380304	0.333572	0.00562489	0.149027	0.074431	-0.0904927	-0.288961	-0.151283	0.0503739	0.247672	0.0166006	-0.351142	-0.0210093
-0.097718	-0.181198	-0.0622272	0.0157615	-0.0190153	-0.351553	0.256037	-0.00473121	0.18797	-0.597487	0.200446	-0.163725	0.537309	0.167584	0.0337427	-0.0650576	-0.376602	-0.170506	-0.0393141	-0.0506092
-0.177802	-0.162304	0.23169	-0.282479	-0.0941526	-0.222974	0.240078	0.487152	-0.0976006	-0.0205467	-0.113195	-0.00377834	0.134284	0.212847	0.283336	-0.325492	0.419956	-0.17321	-0.0406554	0.404995
0.135819	0.115353	-0.0401724	0.265091	0.0355057	-0.090424	0.127254	-0.0671137	0.117	0.207417	0.156162	0.0388742	-0.369788	-0.0357748	0.0550355	0.0613365	-0.108523	-0.297982	-0.116499	-0.398257

-0.796532
-0.0596185
0.0664956
0.271385
-0.1278
-0.433765
0.0806683
1.17547
-0.209429
-0.983118
-0.270931
-0.0168939
-0.914821
-0.0923562
-0.163573
-0.363725
0.359796
0.365255
0.0458497
-0.321189
0.129274
