																																																	
-0.0206968	-0.0601754	-0.160991	0.234106	-0.0470744	0.0578176	0.243032	0.00488036	-0.000598435	-0.124864	0.694178	-0.321912	0.192039	-0.367666	0.0183024	0.0013892	-0.0971277	0.204016	0.00296745	0.322914	0.127666	0.0452621	-0.0402737	0.0576196	0.00476131	0.010003	0.502219	0.00739429	-0.610663	-0.0224564	0.144605	0.0352105	0.132359	-0.00166796	-0.00447066	-0.207954	0.0222526	0.147689	0.481728	0.0037731	-0.043535	0.042215	-0.0289632	-0.0810022	0.0576951	0.709618	-0.0221956	-0.0373641	-0.101695	-1.13668
-0.0522505	-0.390504	-0.166512	0.222204	-0.070963	0.013165	0.219552	-0.061118	0.0165126	-0.0647232	0.863435	0.163115	0.215665	0.188847	0.0394246	-0.0206929	-0.13331	0.208134	0.0191479	0.217893	0.340678	0.427018	-0.261158	0.422002	0.0160026	-0.0859241	-0.154399	-0.060674	0.778433	-0.0877589	0.142175	0.0421941	0.0806068	-0.0076398	-0.0400955	-0.165326	0.445288	0.296648	-0.162611	0.00239977	-0.390734	-0.0788506	0.151134	-0.362388	0.415395	0.920372	-0.0488219	-0.42494	-0.341936	0.473539
-0.0399445	0.0519364	-0.0674048	0.0345278	-0.0707562	0.0764066	-0.114762	0.0641412	-0.0489859	-0.056019	-0.402917	-0.0101048	-0.126356	0.208537	0.0910615	0.0302081	-0.0618156	-0.0367386	0.00197537	-0.151537	-0.169974	0.0268744	-0.104828	0.129305	0.0445284	0.0337662	-0.0292277	0.0233602	0.0279822	0.0404263	0.096305	0.0624456	0.12043	0.0247614	-0.00632356	-0.10433	-0.115071	-0.0216036	-0.0890087	0.0244308	-0.0739308	0.158347	0.0636145	-0.00887952	0.166958	0.640948	-0.0652137	0.0291871	0.0621382	0.115099

0.0073196
0.263838
0.120747
-0.228204
0.0200892
-0.0101848
-0.236052
0.00627687
-0.00251326
0.0594422
1.55874
-0.232566
-0.175255
-0.358835
-0.00246707
0.00178758
0.0660688
-0.183103
-0.00120401
-0.440817
-0.244179
-0.433956
0.110849
-0.357334
0.000373682
0.0104183
0.640734
0.00485992
1.76558
0.0182798
-0.0978544
-0.00969745
-0.0661473
0.00158596
0.00290645
0.155285
-0.422654
-0.214797
0.548093
0.000265053
0.250631
0.0105097
-0.0377497
0.235924
-0.304367
0.929458
0.00609589
0.356952
0.22458
0.615313
0.0376027
