																																																	
0.104068	-0.0473419	-0.558226	0.441088	0.500777	0.418875	0.0372009	-0.702791	-0.493765	-0.424365	0.57936	0.668412	-0.0296252	0.0161205	-0.0280085	0.0448766	0.349583	-0.431864	-0.421123	0.418382	0.631991	-0.464147	-0.429717	0.406529	0.637361	-0.540846	0.421421	0.402052	0.0429013	-0.405482	-0.299925	0.0265295	-0.0352602	-1.04231	0.472068	0.383054	0.031291	0.0494718	1.12121	0.41918	-0.393459	-0.0217	0.41878	0.47255	0.351351	0.0248525	0.413422	-0.438981	-0.0698499	0.538437
0.0224798	0.753084	-0.995079	0.227254	-1.20057	0.212887	-0.603981	-0.931153	-0.213467	-0.214248	-0.954032	0.842612	0.593725	-0.548968	-0.546019	-0.751358	-0.137728	-0.211664	0.161793	0.210492	-1.02751	0.0994675	-1.24498	0.203699	0.247453	-0.879659	-0.152321	-0.146771	0.598448	0.107342	-0.262081	-0.593621	-0.897004	0.465561	-0.275464	-0.125395	-0.598323	-0.726327	0.503758	-0.157318	-0.189542	-0.560363	-0.125975	0.218473	-0.152563	-0.806873	-0.111608	-0.226747	0.155267	-0.82133
-0.466908	0.587206	0.997635	-0.247168	-1.31674	0.00194362	-0.110553	0.516659	-0.65624	-0.0525132	0.785937	0.635533	0.0548103	-0.148309	0.184085	-0.607702	-0.334967	-0.266639	-0.150517	0.0672331	-0.326625	0.221971	-1.27275	0.149825	-0.75455	-0.106494	0.107088	0.0717311	-0.397356	0.181001	-0.208919	-0.0322663	1.33693	0.0370121	0.444259	-0.128823	-0.0675596	-0.511259	-0.00300611	0.13369	-0.13605	0.217781	0.0271075	0.533108	-0.0528817	-0.904806	-0.41919	0.242449	-0.139891	-0.0466304

-0.0544842
-0.70291
-1.045
-0.381316
-1.25436
-0.294536
0.401076
-0.725922
0.439247
0.337028
-1.45309
0.909883
-0.403677
0.246611
0.267505
0.673368
0.189624
0.285801
-0.361449
-0.284326
-0.85147
-0.267263
-0.924853
-0.207881
-0.590283
-0.718701
0.277833
0.278234
-0.377432
-0.379517
0.100219
0.424008
0.851604
0.87255
0.416528
0.23433
0.418698
0.566863
0.652916
0.3446
0.181779
0.280103
0.392591
-0.385606
0.180283
0.859369
0.398033
0.368871
0.0578585
-0.586661
0.207017
